{"conv1":[{"kernel":[[0.05541120109987954,-0.06550192496120574,-0.0004094783952499502,-0.05491314157362679,-0.025422056583511366],[0.066576354687733,0.07361522280542576,0.08549564048760354,0.05554449103205695,-0.018687482346997263],[0.023129536615701357,0.09658759284163076,-0.061310871611469184,-0.09879662753174576,0.019439497409028113],[-0.029810128295012207,0.0032880385135929187,0.016161253299181746,-0.0570590986799007,-0.00023111709650437895],[0.03422265918998808,-0.06931456402520139,-0.09187867023086305,-0.0769492120742341,0.004839179131608513]],"bias":0.031978564942255615},{"kernel":[[-0.04866179593768442,0.009767498043411893,0.09050153987439295,0.043117145699862906,0.09227937268555601],[-0.08639046811113447,0.018963505144124836,-0.016024912740200695,0.06504603285441793,-0.0073112697264006024],[0.00680940566656665,-0.058363797509456736,0.08672870860431182,0.018318725389782214,-0.055773199077048745],[-0.04504331956319098,-0.03375548587604213,-0.0066749130034264356,0.07186626343773499,0.08628110676439148],[0.0009354693750981588,-0.033757870825827874,-0.08624137915221526,-0.032854218536593406,0.023105523268660035]],"bias":-0.047915906924754385},{"kernel":[[0.010816918389582559,-0.0053598289227091015,0.06019177392902005,-0.040079421184831904,0.07846820272352856],[-0.06702298278389354,0.012775831069933373,0.070391156750045,-0.04032603632245225,0.006616964207123892],[-0.017775006121653086,-0.06559213786178737,-0.06993386603482186,0.08904459242557707,0.047636467283012025],[0.06180935037287091,-0.03280317071886441,-0.049098142017090604,-0.055056232103132235,0.07715983873904443],[-0.06055275586349576,-0.0850131916068891,-0.022291825481870194,0.09449779820828057,0.009097478302546485]],"bias":0.04468122043181211},{"kernel":[[0.0077974661308375555,0.0008943244463173806,-0.060953488940747896,0.05172339080246195,0.003333768298164654],[0.09814197382956791,0.03704378916943612,-0.03193712770087216,0.018995996828369662,-0.011170275345060827],[0.001673698505875241,-0.04225981322579979,-0.07936812489824044,0.05833727300295517,0.012304119985619923],[-0.057501573046934,0.0737309466263667,-0.04833907284835866,0.02169456099923345,0.047032433332651204],[-0.021860637453061514,-0.05436978186298846,-0.036144590006856055,-0.031346252787967974,-0.08761415794949577]],"bias":-0.049887692346237605},{"kernel":[[0.008264847947726955,-0.09728951755702221,-0.09051368419247284,0.0002654238711544315,-0.06819466034868768],[0.05240500278475241,-0.06733498547221381,0.04166774034596472,-0.09792709163789712,0.02167141678662923],[-0.05693455398811434,-0.024775584886724027,-0.042389343912349844,0.09070983752961692,-0.00585372532200286],[-0.04863165093875583,-0.08422642925440649,0.03345362706536912,-0.012610321149788993,-0.05478026585036321],[0.0037919723684555155,0.07595041534365263,-0.020549442405259993,-0.03723840754444667,0.0599716627974987]],"bias":-0.03916893699206412},{"kernel":[[-0.08617279785363337,-0.05078421831282027,0.014050019993155626,-0.03008583141019206,-0.02428794619679832],[0.007046664648693136,-0.044785809463975014,-0.03413717410327579,-0.03242433767994161,-0.032283148614302114],[0.018165099510214118,0.00009586059968847662,-0.07546128593249879,-0.06651897061482816,-0.08619387251234209],[-0.07049442463630178,0.01089628712126274,-0.09557639281268014,-0.057854097112145224,-0.03223029758323267],[-0.05694523146900144,0.06624337395301416,-0.030609914503307346,0.010577334864375853,0.08117523753754176]],"bias":-0.03941132579930127},{"kernel":[[0.09626546256509444,0.04882244392188424,0.07552843641475265,-0.028478523878589877,0.07302849303811335],[-0.05437979007835592,0.00783036646698355,0.09582219211288054,-0.04975520253234248,0.09294461337891516],[-0.05476152445519326,-0.08286649213826221,-0.07977268552797409,0.014373433847583723,-0.0855748505034374],[0.09474951580535705,0.029066705713101007,0.036411599908601495,0.0837357023524684,-0.06649591132022856],[-0.023754784008932918,0.029137463889026795,0.034632807497869414,-0.04403195908387331,-0.02198614510897298]],"bias":0.019692794885486364},{"kernel":[[-0.0981637695144088,0.09263553422539368,0.06774519413526418,-0.022773079855738194,-0.051671530559348006],[0.07367959464260677,0.02404246063168136,0.06298756133911072,0.09911492860966213,0.029922983945025263],[0.028569873164757145,-0.04472293435905793,-0.07368272788874647,-0.049269856006255865,-0.014155406939372795],[0.0939747076398354,-0.010914325026745553,0.028849412186836516,0.03218882950539302,-0.08633448228136362],[-0.010135320506635438,0.06124679298108215,0.06907313446448908,0.0716155569249223,-0.023544480944767222]],"bias":0.0006375654600560666}],"conv2":[{"kernels":[[[-0.021222183690406383,-0.008097071410156786,-0.021807066584005955,0.01069068186916411,-0.025049346871674063],[0.011632601963356137,-0.023467536130920053,-0.022740722144953908,-0.025184636260382833,0.03449187825899571],[0.02497141007333994,-0.0365942997392267,0.022575623518787325,0.04120339285582304,0.010505373915657402],[0.0165786923840642,-0.02113884894642979,-0.023877425328828396,0.0033722625812515616,-0.0010431354166939855],[-0.04082315899431706,-0.03495060151908547,0.02544813721906394,0.024703448498621584,0.03308905411977321]],[[0.013304572296328844,0.03858050818089396,-0.007101995567791165,0.0021744163939729335,-0.005461352155543864],[-0.0006753865163773298,-0.02201352540869266,-0.042104664142243564,0.026076991902664305,-0.025827525765635073],[-0.04044070900417865,-0.01508732121437788,0.043692957563325766,-0.018472488108091056,0.030637749261222782],[0.029081581113860014,-0.009079088224098086,-0.04136771690100432,-0.0016654410865157843,0.048371061263605956],[-0.009416311490349473,-0.010146286780945958,0.02723154036793858,0.04326074756681919,-0.007986195292323828]],[[0.013326860452070833,0.043634045496582986,-0.017275234498083592,-0.02736450128722936,0.0498785050585866],[0.04618275368120522,-0.011581143527291716,0.035410616104491054,-0.014319808874279262,0.022899890504777434],[-0.01257774573750794,-0.023718222859315574,-0.03654721633065492,0.006119794584810734,0.031447865162044765],[-0.009421890182420612,-0.040432934858836235,-0.030325277661904695,-0.04932905884925276,0.02277142652310431],[-0.01537958816625178,0.002261089067906141,0.012917958758771421,-0.045611134171485906,0.014767116098664702]],[[-0.032058070064522326,0.00933885967824608,0.04053266323171556,0.04949402275960893,0.012576016737148166],[-0.04774566062260419,0.015764115331694483,-0.021108714980073273,-0.03114401309285313,0.033015602524392305],[-0.0003427448915317655,-0.010154169308952988,0.02661540941335261,0.03351702396757901,0.02288692139554769],[-0.019883041246794166,-0.009797405777499081,0.0021246283780783416,-0.0026204211870208384,-0.04792381736915559],[-0.015304348105564714,-0.037016962119378154,0.034555989876389505,-0.02241735982242972,0.03810247089713812]],[[-0.020664978260174396,-0.006575274979695678,0.03598321645986289,0.015413659694604577,0.020024706562981012],[0.013580041751265527,0.04439379055984319,-0.016038917098194362,-0.03913530597928912,0.01884086164645851],[-0.029338138131424787,-0.02471585881430656,0.011377389077097178,0.012992206076160074,-0.029363977955654263],[0.006137864361517132,0.02404377714265138,-0.03092956217005849,-0.005294020893052221,0.02722211377695203],[0.021721081668511034,0.009242357220500708,0.003110794466920197,-0.0483992604771629,-0.017780071473680437]],[[0.0015297540929168464,-0.03712370728608221,-0.03281691391021013,-0.028633088618516923,-0.013425590959377587],[0.0329840742982924,-0.022747798706404865,0.013675453374162316,0.026322417776100338,0.010963759222067894],[-0.03820288430433721,-0.03569569659885019,0.0025663462933152915,0.023765078186988833,-0.01605706175323576],[0.02129779423121363,-0.027364012226462366,-0.004756669932976365,-0.014459145558066667,-0.01439808919094503],[0.003859722334891558,0.020244538178667427,0.010336353350430727,-0.04056501283776015,0.04511425835080445]],[[-0.008160418178886176,0.039304662100039425,-0.015862424043007195,-0.01692973126191646,0.022471672226674858],[-0.009449588158167899,0.007253747689537704,-0.021201644092798233,-0.020106511842459443,0.03801873882766813],[0.024642136949114504,-0.049872433557175105,0.003339780028909445,0.003701397334225476,-0.013680345215834678],[-0.019821955705992877,0.004135345877148211,0.007981099211610854,-0.045511650224216285,0.028403334319591522],[0.01911596835125238,-0.02327008789870888,0.0271914980141446,-0.027549664350226523,0.04063250331673771]],[[-0.03542130624409765,0.02289345220196992,-0.04484470789320767,-0.036995763517916204,-0.04888393627479673],[0.030218160781078043,-0.035002965945750475,0.027217912930063905,0.038142980705015365,0.027090449887327853],[-0.0005524167092517019,0.0030058587435632944,-0.04625295377336443,0.04565055691637099,0.03701661718077958],[0.03221376785077155,-0.024755637370981277,0.041867250623181466,0.01697700349614024,-0.048686610325239604],[0.03348200339823961,-0.002492725988849998,0.0005662252428010106,0.03798662745393813,-0.021886989707127213]]],"bias":-0.014640937559306622},{"kernels":[[[-0.030451034428551793,0.03818299472332001,-0.00877043753862381,0.04833902500104159,-0.030861290777102115],[-0.002511250134557486,-0.024868454574607315,0.022109386720694603,0.04996208541560918,0.041630634153261785],[-0.010251049557700754,-0.004466253309510649,-0.026454869145527485,-0.005732845491729677,-0.030382394045591357],[-0.001050183200277388,0.04870709187816829,-0.0490190074313432,0.0400916991988197,0.018657872593030336],[-0.04569329384248704,-0.03336611564736813,0.042848374461755157,-0.0031173735624179244,-0.0004256806569173932]],[[0.030984926549717785,-0.03899044475983829,0.0012047713156789542,-0.04634035329800099,0.008631688705645502],[0.03775378004647792,-0.007661690260283649,0.02756290801335126,-0.03193403044715524,-0.01737076418939978],[-0.01288218724075705,-0.019691127981059254,0.0380864080041647,-0.0031825609039515257,-0.0320946549763903],[-0.017612058529630305,0.028261645790189506,-0.047095400956459345,0.01089703340549022,0.007036503613926471],[0.037030704761855306,0.022019841289147735,0.002108374983072281,-0.039196667633950716,0.010270550916902722]],[[0.027080892166122795,0.0037354807369410995,-0.02958956677466631,0.021182893309742212,-0.046278971410356466],[-0.01936847437173128,-0.01704225626308471,0.008324788324534893,0.008545553777366877,-0.041947050811722876],[0.021833177516236903,-0.04776457785628736,-0.001051394105888903,-0.010480727488175036,-0.04777130668517202],[-0.011672846926376225,-0.029836711287498475,-0.0021349022164940837,-0.03987109053414315,0.00410509156063199],[-0.024254149943590167,-0.031260619941167536,0.028953770245425406,0.017281270283274353,0.02598185029346496]],[[0.010919399862177671,0.026963724032975735,-0.0024748340016230944,-0.016671406012028458,-0.020487948902882636],[0.030224466929212213,-0.00879240983631462,-0.0402091040275991,0.016731841838918626,0.038401855179108685],[0.03433694860432297,-0.012507739104330541,-0.04397753167431802,0.016472820122726262,-0.030871763941831887],[0.027177241281606257,0.03487582923844457,-0.043453070009127265,-0.029198518372140825,-0.012065570917911828],[0.04868197548203171,-0.029694187035784126,-0.04461465743370355,0.03048366624861956,0.02065729731693864]],[[0.017092741490341724,-0.011874580290168524,-0.036505210166797045,0.049799037631601095,-0.03059968440793455],[-0.01618790375068784,-0.046116060204803945,0.02293875771574676,-0.027815925935283304,0.02516886505763978],[-0.005827959207817913,0.006616414641030133,-0.012310463143512607,0.019185371673665942,0.014845285774208607],[-0.0178508106386289,-0.0102711433544755,-0.008168134046718479,0.04014400984160602,-0.035191248473711315],[0.019914159015752376,0.03710338666569442,-0.0023106981767341494,0.030691346153616905,0.01695741740986705]],[[-0.04227700759656727,0.018414254253730177,-0.025977153051644566,0.010717871203087271,0.030856081563979388],[0.0013522864552214743,0.012882799096405507,0.03289128674659878,-0.04410415994934738,0.016718071559444072],[0.00309942769818008,-0.027772404300048948,-0.038894614204764366,0.041837473516352475,0.0005327424732968211],[0.018857753346674146,-0.016918405680917206,0.0008995932759717107,0.0001540805445984006,-0.03957127411849797],[0.009789522155188024,-0.025485685211606324,-0.04139990005642176,0.03138875626027584,0.03218814702704549]],[[-0.0047666158759966494,-0.0011644496116787195,0.007667155959643424,-0.0329701783368364,0.04934917588252574],[0.026780847855843604,-0.012876181234605611,0.03292546116281301,0.0003920926246792078,0.026049838843755425],[0.04183646850287914,0.03666241348255426,0.004110848577693105,-0.000605598301626742,0.0085962651995942],[0.04929144438356162,-0.01414402488153428,0.0001198858954012394,0.031719710654579104,-0.028366399556398393],[0.02519702473655343,0.048662940482608975,0.025919692218303682,-0.005526514258235693,-0.04587911700364203]],[[-0.04170999876223505,0.033215470844879746,-0.03796202871017158,0.03194044758565724,-0.03417833023704588],[-0.04779445882886649,0.02438821285031736,-0.0461708054644987,0.04527314468286932,-0.024668898852542046],[0.008098648232407869,0.026124528353102507,0.02806243575178087,0.036379303433932364,0.03070625935215503],[0.02756449857261032,-0.024455218575894833,-0.0004496961599215865,-0.03978278550785035,-0.011654878524132073],[-0.0009740183595567942,-0.04369805522728712,0.02578035439364612,-0.042022709478624166,-0.012291782721877099]]],"bias":-0.003760113660246134},{"kernels":[[[0.03567602860275656,0.0023818326415494086,-0.016694774036295712,0.008627051347866654,-0.009417100553400816],[-0.0044816831126809125,0.03635677618440241,-0.032440479123033585,0.0013272363459691406,-0.021177813201211395],[-0.035845499299466614,-0.028114545508287847,0.047257591504603624,-0.028810351924039426,-0.022438853210769594],[-0.0394878652645275,0.03131922138854861,-0.013989564799703659,0.02703501698561013,-0.015559295425191522],[-0.019633557344786823,0.048139509628526866,0.02754829633049667,0.03328026202507317,0.0006605467759072781]],[[0.0033353721024468545,0.020256804069504142,-0.03639813864137977,-0.048900056281127036,-0.013348450209014118],[-0.023105143615975977,0.03794195419177413,0.044211383420042695,-0.043611348979175096,-0.03397539139259607],[0.0471434839302674,0.0016924023861065508,-0.0083202084293589,-0.045331801380962135,-0.02259156219661236],[0.009269033139571548,-0.001284498069435358,0.029121059668250383,0.01951228736434132,-0.02915660671424121],[0.016829366399906575,0.011980018857866526,-0.04794695640448481,0.023393239034339788,0.040521799586713314]],[[0.01615217700600624,-0.04824385684914887,0.0451209583086893,0.03629632589872927,0.03803064990788699],[0.04445767416618765,0.020041536376811567,0.011370171187445523,-0.008389554196037352,0.011113865999504924],[-0.0244035690324381,0.04873904075939209,-0.04427366501186043,0.028223114949651063,-0.03565767318941653],[-0.016029249271377922,-0.0486758355749771,0.01464807027950883,-0.02924382002092898,-0.004120934335514903],[0.03324573775753379,0.03418962555006146,0.0283564617857337,-0.03822275730781258,0.02755821426399052]],[[-0.011911285552196206,0.04850955079309643,-0.014728786377236248,-0.0437682508956641,-0.004680706467479467],[-0.027643789141438904,-0.012301280535757542,-0.006679440056905151,0.002346731070429087,-0.023396540596149863],[0.01847819604445249,-0.013317549787461759,-0.0036379359895363454,0.011587908444926144,-0.01589587877970189],[0.028103339718654752,-0.009405303350649775,-0.019630184397101402,0.013920448091812433,0.011820464860647917],[-0.017264961707405747,-0.008925920818001032,0.007605433231219649,0.015140697802416982,-0.02594982865266502]],[[0.02461641267873347,-0.01919208902399987,-0.01166377291083336,-0.020461321948096158,0.04027656123507768],[-0.03323519774712622,-0.005274283862672747,-0.04279074582736939,-0.024184053204953673,-0.004745709290727974],[-0.004634541482664645,0.03964158815797419,0.0017821424640715124,0.026164908753708006,0.023101542866788807],[-0.026263834652490915,-0.03263322284910828,0.036909533245489005,0.03179650902748108,0.025003566034138204],[-0.010798171442002059,-0.02782637723721564,0.047721328074112536,0.007089757430367172,-0.04755204701796174]],[[-0.00441995847504586,-0.007468565367162228,0.032272043614648284,0.00543865819927305,-0.04064946589060128],[0.01260243693832308,0.043425118061713876,0.012068372569046915,-0.04397530774585903,-0.018173727160319685],[-0.03568393422756344,0.018422686611302197,0.013151333900168538,0.036063635745085774,0.008258295501582325],[0.021261216048151257,-0.014254803815856577,0.017204572283662855,-0.04759581240359694,0.011107487068511546],[-0.04771944540552795,0.046377206314355136,0.0163711296627298,0.03747934480197728,-0.04675964592024684]],[[0.01339428797364235,0.01819289301056415,0.048577929660677914,-0.037016206164844336,-0.032235885201953356],[-0.03608947105240077,-0.032934665051288906,-0.02681175586767495,-0.008892750414088369,0.0017512728460133077],[-0.035216540074907245,0.016912600514478984,-0.022925803042016926,0.013203832227736712,0.046026156214065854],[0.007112215762026608,-0.031863291724585,0.012164320144802333,0.014477874408476055,0.0024250127142295243],[0.04122659519780428,-0.026574556063860656,0.004524763347581029,-0.04703719846438617,0.014399120421148838]],[[-0.018863882357254627,-0.01796523304656148,-0.01953222812153399,-0.027387231355533004,0.02921120533719659],[-0.019451219751499594,0.007621855777688325,0.04834122082684189,-0.04989749563392252,0.04788796417415142],[0.03863724835682661,0.0005974473897367716,-0.035177879291586577,0.034999705478549005,0.04115034581627697],[-0.013722786772996189,0.035684087336994706,-0.04566023973748088,-0.000034536258317530157,0.013899661414325238],[0.01161291601601988,-0.043753815232776105,0.027541911369189622,-0.02037054989486933,0.004510562168434262]]],"bias":-0.02788004744797945},{"kernels":[[[0.03226848477497697,0.03715265698265285,-0.04097354388795793,0.032303264690563084,-0.040830263611860575],[0.012196166790090501,-0.01509010570589453,0.02705442507285625,-0.02867861525155604,0.030965026421472433],[0.04565057985018939,-0.03293185397051275,-0.03109986900817603,-0.02275769386906177,0.03805712179746479],[0.04581745876930654,-0.044087437004782265,-0.0421505562029779,-0.023719686432741582,0.03605284604709596],[-0.02249397721607238,-0.0018944946583360435,-0.025720675103366376,-0.020159553247503938,-0.027180095203220844]],[[0.00988012303132564,0.011476900684647262,-0.005763950198888779,0.0374712159158662,0.004706279397942126],[-0.0018031680025160314,0.04780990709550679,-0.017002515122294427,-0.034660506434738635,0.019486158061772587],[0.01893692263402045,-0.023675171728245917,-0.020566125283949077,0.027181986416690052,0.045763029856607323],[0.030819397978484632,-0.02671929383650422,0.025313230603933336,0.0193792233010754,0.04419915275648237],[0.01970754705835134,-0.017373216478154065,-0.014211212960071863,-0.031697719683870675,-0.026918729534372687]],[[0.003441265900619328,0.039205736736767,0.01868630163371563,0.001984538254328072,0.038017349387519064],[0.014232510677538814,-0.023467962956056,0.014364227280020715,-0.03959119028877467,0.005292438645847142],[0.004676804621703923,-0.013071660464629532,-0.021640470460988583,0.006905778707005084,0.018744557956233622],[0.02457330708857626,-0.03336816283408552,0.007434221520088613,0.04416487638372928,0.02935003631282598],[-0.04461937281303108,-0.0046575098065659406,-0.047112268651835626,-0.014288961701095105,-0.016923571331426503]],[[0.035949753737077116,0.0077331014676019555,0.008156866836361588,0.0436171556590125,-0.04693866958841682],[0.04775791778229177,-0.025316803134046495,0.008952817879617214,-0.03795700932387263,0.03654967839829624],[0.04077387747820467,-0.01832120059989393,0.0012062098132446409,0.03560849211644381,-0.01990211196243763],[0.0260136240394786,0.0428855354199186,0.040037326980382204,-0.038827859261073176,0.020043778116814792],[-0.002459195745177567,0.04102891043294221,0.04742526032496244,0.0012593936175107957,-0.025662388629280032]],[[-0.03245222740806639,-0.029882785910740495,0.04671877294313163,0.00614185396116227,-0.0021038606064394116],[0.03913735046517104,0.02379336094018072,0.028196642827242616,0.04643457513302565,-0.03159004463814199],[0.00889772200025618,-0.006266818102449179,0.045665391138754785,-0.03544401766266674,0.010078920493833722],[0.00938280480913818,-0.0040737740928307176,0.04460910074412823,-0.02625249184202403,0.01890495694242418],[0.015268559916876256,0.04868053621612489,-0.027485735365189612,-0.009680155571550131,0.04574272634927184]],[[0.024715705332346263,0.0066176882246509194,0.028660136344842616,0.028351093735545875,0.035599257843568925],[0.003984128753654659,0.02111143001820892,0.04664056282490492,0.03420472878497094,-0.024362862738780678],[0.02756047535222024,-0.029117742530070247,-0.00029194904491305353,0.01035250024870038,-0.02103008746635169],[0.007678807736374438,-0.02542796365451068,0.016548086237162352,0.035818857094272974,0.01876172390766442],[-0.044272399577312174,-0.003390939743258059,-0.04331124634481967,-0.009087534388527274,0.0209211451234296]],[[0.010023247520439328,0.010265808855183424,0.03584151004906744,0.008569744136184455,-0.039197710994631055],[0.004511643969453871,-0.0329673970118165,0.020267416373826563,0.00778815548401326,-0.003982481989078224],[0.015796961542218924,0.04216923534404487,-0.026989823253825308,0.03995820118580014,0.043154169758781794],[0.02549254794139415,-0.011388936592265964,0.035194487869739534,-0.01650419533252716,-0.04781558925751597],[0.016146561759524048,-0.03239525619428605,0.003923055971972645,0.0063472080277279025,0.037327371258288625]],[[0.04489503833465278,-0.037278656591661276,-0.021005711774341764,0.0034549312898889185,0.034747662395238875],[-0.018572707939893008,-0.035817693918943405,0.04008876904845238,-0.02091956299263984,0.011745260586030782],[-0.045883033005520706,0.008916355785913765,-0.04734210667666048,-0.01341496331151575,-0.04409519105684012],[0.002859011362306774,0.019884798629209402,0.04890061747282744,-0.04604907573666424,0.00005727587267756462],[-0.029343544319272042,-0.029978680075146258,-0.04946800873149187,-0.03882677888032049,0.04659224634524435]]],"bias":-0.007185800420120359},{"kernels":[[[-0.04165969241876155,-0.02316478651482612,0.007431564503349364,0.03793176538310945,-0.039074420905672015],[0.0009384645847603679,0.04325334772001952,0.03091051927767694,0.04290096045006067,0.03496262636035681],[-0.03698861415032297,-0.04973575272597373,0.024784651934169233,-0.01486184208188206,-0.017261211457662285],[-0.001955773192457855,0.01170108043588698,-0.00909025154542178,0.04495334182865918,-0.008318626997061073],[0.003095371415838599,0.02060787421651185,0.028982015210203826,0.003765639779157937,0.03202968291006982]],[[-0.008446105848997831,-0.024180936301127078,-0.026406113733537497,-0.01875985146034509,0.022728634532541037],[0.023464115941897037,-0.03145079552195967,0.002986039663664997,0.02440555582288653,0.004625690612010658],[0.010546846594661475,0.027953489939682188,-0.03853174548130483,0.023147865221835675,-0.049811804038472476],[0.043569331336766486,-0.03883521736133844,0.012487814296036959,0.014314763108268382,-0.019564702664501967],[0.037848939374089244,0.044192780205048625,-0.020968052931129934,0.005937726818956435,-0.011632691719569266]],[[-0.021008997736498714,-0.041987804556265475,0.031828233529813586,0.017537512280978263,-0.010190137126483024],[-0.03823276294860989,0.03885864787735045,0.0498688745778054,0.01815052542369813,-0.022494964161887766],[0.019261730764992536,-0.009669792861677707,0.03341187536716461,-0.03650338370352984,0.04471036200411618],[0.04854596389923245,0.047609796607866885,-0.03394275982864201,0.04047585837543011,-0.029685760638676586],[0.012088866461999715,-0.01731137742754072,-0.0447265247348696,0.04075940812472254,-0.010945483413524927]],[[0.017013776558451356,0.01904475688934326,-0.02654662763234228,-0.0014037937158718706,-0.02295030609238893],[-0.049654436530545354,-0.04245260795578361,-0.011735521815717222,0.020471061603166165,-0.013854551035910845],[0.013754853093996645,-0.01423794145230204,-0.046709473524242644,0.026735984603874385,0.006122822384350002],[-0.01438517956994474,0.04644381841644645,-0.0034808230120688677,0.02118089229334146,0.006423733825795353],[0.04461610626894981,0.03923441653605551,0.039266669540666044,-0.017145753582008184,0.0077483303844928745]],[[-0.023211972462013366,0.03647465435788035,0.030228806030936542,-0.03139589955098927,0.03447220390662551],[0.02023923476226628,-0.04104358479380608,-0.016343017993494868,0.011826796922832727,-0.03564998656511307],[0.0030883208150044084,-0.036107801669277254,-0.041023711673915386,0.015022227470763028,0.033119629416614775],[-0.011018545087426902,0.04202380625065416,0.043606100720353425,0.02868240715470165,-0.023509895754978062],[-0.013131780340336264,-0.04946773739065975,-0.02146226561162621,0.029779579071328045,-0.0019156732596457005]],[[-0.034872326022014025,-0.013784694904461504,-0.028300011926330627,0.045351559505797924,-0.024472807953134182],[0.03248802379239351,0.04231182197108865,0.024558359477669003,0.004621810116805136,-0.031868179235607384],[-0.015323172346688807,-0.04320671372115612,-0.02730621595401317,0.04484174849931151,-0.047950567607767884],[-0.027533979201689363,-0.02634356007911265,0.030620511993765833,0.03906108180526644,0.0042308617383241655],[0.012701611407101155,-0.03240734350401908,-0.007153867557644845,0.0016948527423664929,-0.03894278423395008]],[[-0.002554591442458332,-0.03777287192642689,-0.015227361535653473,0.032760496437549594,0.04617292210459709],[0.02517507530283183,0.009876255365088583,0.007755937450565398,-0.026265158713795245,-0.006195972044952214],[-0.020573889068327845,0.022156440163962544,-0.012525876611471178,-0.0043987590353935955,0.008976411214098335],[0.03620328255929053,0.02849935309495777,0.012068511289544405,0.003367141936905682,-0.020302719064056875],[0.003590191318653524,-0.04586642542853952,0.022832517605274917,-0.044129705405794084,0.020059266756288708]],[[-0.032833239459432666,-0.03162622242234647,0.0009841263527050614,-0.00488595780916512,-0.016413292684592306],[-0.017966706957668065,-0.02608930424321443,-0.04257267771754414,-0.036826219479553404,-0.013030226272530854],[-0.04559692058246583,0.0036678625736385586,0.0449248242424801,0.039449498616158964,0.016097927978262306],[-0.04126781818922609,0.0362517912639305,-0.01225577557925135,-0.0039263729006052015,0.030742053268477322],[0.03710575078148395,-0.01919418415054679,0.04862812235951424,-0.03457690188661218,0.04126776249613613]]],"bias":-0.02839655641000718},{"kernels":[[[-0.049342598975636066,-0.0008976835059002042,-0.038815312762744726,0.020967493485659364,0.0002450033091008663],[-0.02383734539616853,0.015039020916447043,-0.013367814244702458,0.011352889123372734,-0.046468117367476226],[0.03206274663098157,-0.04336195350624621,-0.04626583950594068,-0.021856392500922084,0.04371641918551177],[-0.041856194287538534,-0.047063222248107196,-0.020604608766734603,0.04193775332532823,-0.009825176210142672],[0.04785283245146275,0.020172691415064038,0.030180501961149277,-0.002316027437336743,0.03873364909086377]],[[-0.025241851783357562,0.0005366965429857373,-0.044044404127635065,0.00048458753153681757,0.012533171987161041],[-0.045206515677273275,-0.025932982983067634,-0.04115683557465673,-0.025614589033648372,0.04698191203642637],[-0.040784704103134575,-0.04327933327294886,-0.03032762040384114,-0.004941737442277373,-0.02285859601106495],[0.006758428225293756,-0.0227484971517697,0.014440607721917333,0.011893214844167234,0.012279755505733193],[-0.047263039159588516,0.004754863283596933,-0.006677773175761104,0.04216090342961252,-0.03997285063378513]],[[0.00031958813779056074,0.016822785953991115,0.03524885389488191,0.03419073873665184,-0.005492950719781221],[-0.038120161020196976,-0.0008219841402024031,0.018279208266176284,0.010588676808401943,0.039359075319953266],[0.021384580759331584,-0.024328890372999012,-0.02495141790714115,-0.03680327234324068,-0.03338666094932705],[-0.04087606859393418,-0.039417224819771945,-0.028296859585680068,-0.04644635990262032,0.03947685256134719],[0.03639830613974482,0.04552787116263062,-0.00893788083922118,0.03675146724563092,-0.001622114796191454]],[[-0.038410680415108804,0.004423913452774287,-0.02018845435231924,-0.03297721112612635,-0.03590583160985261],[0.014552967739291489,0.020516496081836522,0.018924420210532845,-0.00822498758789152,-0.01693180287256837],[0.007221239223144949,0.036853050091303886,0.011564896837808192,-0.02235249858349562,0.018987892474979163],[0.03496547117829323,0.031676802621223035,-0.04407354008872062,0.03521235606167466,0.04288119215052575],[-0.04598745207767934,0.028522190894000234,0.024674835614860058,-0.03864782080054283,-0.02355157614219934]],[[-0.020986975566484035,0.03571743229404092,-0.004434377909637988,0.035849231644533575,-0.007714436808601022],[-0.00740188246127218,0.03619715969543904,-0.022070935391820968,0.01484401363413781,0.022502754023298623],[0.04983885735273361,0.009441499505192042,0.04583873806986958,0.037124406383372846,-0.004140898445621133],[0.03741158347111195,0.009474439406767489,-0.0450990341603756,-0.011473824363201858,0.03570432038977742],[0.014953714795410633,-0.02117692562751472,-0.042370518762618305,-0.04986643828451634,-0.034334171749651435]],[[-0.026089724944904448,0.04498672729823738,-0.0056387527845799925,-0.04077040324918926,0.01736668257508427],[-0.0284267163136974,0.02324382015503943,-0.02903459486551583,-0.045188592607155444,0.013546883291564882],[-0.00883426326327026,0.036669545248150824,0.008195504499599339,0.04702586315106601,-0.04502806679811329],[0.041488417657092214,-0.029148393147625032,-0.03839647439308465,0.015233224793337287,0.004514896241016686],[-0.03570171662140638,-0.04416410068515689,0.04275430564302951,-0.0063266420736908914,-0.03571780333295465]],[[0.010818266193382442,0.03910500842612237,-0.025114919198676946,0.005597724276594818,-0.03795282458886504],[0.03203508434817195,0.0014604053692892196,-0.0471793414792046,0.01721570189110935,0.007280113128945232],[-0.021174051566049457,0.014404774853028358,0.04148902436718345,-0.0068940711207687855,0.019111140980385244],[-0.043498461786657575,-0.0009170649340376259,-0.008460688451305032,0.008524883468635381,-0.034851220063865186],[-0.00933305211365223,0.01836226733867079,0.03533713382203132,-0.046294460329227155,-0.007839562674053014]],[[0.013103689369745554,0.009630428394302726,0.04437813593540341,0.003232894535176456,-0.03953498303890229],[-0.04902870529331267,0.0016534374793991447,-0.03661449458450079,0.026737461797893047,0.027264622785151005],[-0.03892737491987646,0.016688234522007406,0.038107810751535,0.004012074996717275,0.01205095467157662],[-0.04397535587195307,-0.045812164153903726,0.04305123868398369,-0.00603535941336304,0.04164476178120822],[-0.043996431049890816,-0.015158294304274024,0.025565078877843917,-0.04239232686813921,0.02475666974205524]]],"bias":-0.005094312992878259},{"kernels":[[[0.04349534392822534,-0.033236291073262696,-0.0360040336381644,-0.036301116459071636,0.03922413305845112],[-0.0419949873816222,-0.03739832595456392,0.009702741750515997,-0.007598540256731213,0.03975290458183736],[0.030355216353200376,-0.041210583061911166,-0.025250211358070374,0.017771806637756526,-0.011187236430123449],[0.0024916896363720298,0.007342984504066408,0.028919974574819207,0.02327614552341402,-0.006417468050494791],[0.04103190407622606,-0.00990316472016275,-0.008988634194247424,-0.03874472447205335,-0.036766374460421504]],[[0.024537381809204818,0.03430703552439809,-0.0446762751089409,0.010076671047136188,-0.0022797350771725177],[0.028752471040934327,-0.02745559576433152,0.04764121521729976,0.015165642928332092,-0.012134614284150302],[-0.022733483160845936,0.03325832902919501,0.01968899485655129,-0.005964382435195148,-0.038839570293203],[0.007396665355190635,-0.0313213276444003,0.04196697832085192,-0.0138943002326414,-0.00571883434895426],[0.0025875736959278584,-0.04356173702981323,0.04232042145449669,-0.0009952489752322435,-0.02624221618752927]],[[0.043267018254846336,0.0000559493899345398,0.048057442996650934,-0.0037174131022766235,-0.011944672837853432],[-0.004043570626527071,-0.025505319004878402,-0.045532786217518155,0.02301315534859896,-0.03368444268126041],[-0.005863005993887782,0.03802718352526427,-0.04524723840877414,0.04845612486824394,-0.0473149792291224],[0.03243190774228424,0.04993387605063618,0.031174519378691912,-0.032645122474059464,0.040993156889453534],[0.02548085185699165,-0.03201991531532258,0.01418242717627436,-0.044971765531227,-0.010892504616640509]],[[-0.039266979345120495,-0.03828145393636078,0.029411472566425803,-0.020792345819063487,-0.02600626298226416],[0.026568560418672862,-0.04270629002712667,0.04179669199511409,0.025468962406739595,0.0058897776994854215],[-0.021492703538388017,-0.04022333449684084,0.007645081030204892,0.014368235622532666,0.0057027360657230025],[0.009833626309409739,-0.01186361936852336,0.006476596277207137,-0.0019098221324384214,0.03647734730038792],[-0.0019268191652372481,0.031579877436161044,-0.014035335695371033,-0.03343202411197126,0.005799055565148592]],[[-0.009167883964255453,-0.03428239016793668,0.001787750842049718,0.035998849547468126,-0.0380174232646823],[0.0389344580937177,-0.024858350190334024,-0.03445849798154086,-0.03131808815523982,0.04856273646000773],[-0.015085586300119759,0.013802906195633114,0.011614656797610224,-0.010590739198960364,0.03652779278345406],[0.027957224310375752,0.005797569756396115,-0.007976343575865031,-0.025346802663989365,0.044848136114887895],[0.02819025202188641,-0.00035179182887077335,0.04253879219759256,0.033090551500208676,-0.03258708214852959]],[[-0.030498187174089253,0.02911573287565261,0.0325840019620955,0.03434085948392749,-0.016988622397184374],[0.02700297695118934,-0.04786810970399529,-0.043743424140848225,0.008508826699107885,0.01978223053738475],[-0.020032000914216044,0.030850458005443216,-0.03972947262227536,0.04137444931548089,0.025353729375638068],[0.03600581076461822,-0.04126393191982061,0.0315896982094273,0.021192898019216956,-0.004599399049766362],[0.024036254920065406,0.021209581918083132,0.03763037363532931,-0.02584185984451324,-0.02402381910942495]],[[-0.04567535680253059,-0.004309674329124391,-0.04309432276058942,-0.02707354221493006,0.010021962528117002],[0.02578667630441487,0.04180466756224632,-0.040794429602101445,0.04248217579443008,0.03940157652832568],[-0.032032270333729684,-0.017845813767053187,0.04911661131773144,-0.009353410778567195,0.046979789994657045],[0.0435489536030218,0.029336173716001213,0.0035431092837825418,-0.026107653859071434,-0.016241872590035202],[-0.018324660346843304,0.04086887042503804,-0.022940471186302602,-0.005333990138024092,-0.019749431521631777]],[[0.01711618257686496,-0.01614869679324329,0.0022544348845258354,-0.020432113157585266,0.021357347327284518],[0.04568374834489078,0.025329063483513894,0.01383224269375205,-0.02618640521541238,-0.043228295934386554],[0.04971578293479979,-0.021801801770925524,-0.041879777191206814,-0.04055986697785557,-0.004573563300073147],[0.02248639699537307,0.004347985191270709,-0.012079778593033552,0.027465628902427854,-0.007304596574977041],[0.002329405047930777,-0.034231733577325944,0.030091399350203576,-0.02697138381190598,0.027137278323061766]]],"bias":-0.00037018463481217626},{"kernels":[[[0.0029320481931790713,-0.005522854090668262,-0.04050242144148797,-0.014810091443359853,-0.028874724940396848],[-0.04879203180316836,0.008588693826459349,-0.044193507125601175,-0.02741907760500908,0.014729313272982837],[0.027081349305808546,0.046859622490592306,-0.03989590825513006,-0.04488913079258055,0.009755686600692572],[-0.04677474175114185,0.03846799428574741,-0.0034739843104034662,0.02612120055127889,0.012758945929817855],[0.027095610066317024,0.04673166999127716,-0.04289168633986265,0.02485150806605816,-0.005999965104274452]],[[0.04099987982772291,-0.04772981142159552,-0.01887648266274482,-0.04473265609703958,0.03248127673286945],[-0.012433318933472038,-0.034006887860596184,0.018922310904599726,0.011365141323767603,-0.013868503738194704],[0.028408529120497406,0.016057528788223863,0.037309046601876616,0.021471876604482534,0.0027823567157611254],[0.026154833612963557,0.024150636279955506,-0.04994308922905475,0.0462238208623603,-0.0406758192460984],[0.041245003300718966,0.02177456575445831,0.04230730445124209,-0.023083685361780227,-0.012271389970555902]],[[-0.03645823604892939,0.049472090974450114,0.008401558944024145,0.02879104947205633,-0.016819640155881645],[-0.024119550921022893,-0.027515323576517405,-0.01935140413697809,-0.02347315112128854,-0.03448258417192847],[-0.0499812895199284,0.03043978239875287,-0.0019806922879070043,0.0002095358679071069,-0.04872761454898864],[-0.02787486838642508,-0.0064288604538887744,0.028251749300397935,-0.04065127929206938,-0.040062272036448125],[0.04838032883126289,0.03585580533836037,-0.04935897325631231,-0.026342901028692724,0.038716767774894835]],[[-0.021547604445368053,-0.04421264682896436,0.04472687095403671,0.045134880370460456,-0.011837542871944606],[0.039193342369981114,0.03863325961865485,0.047682856069877745,-0.00955925697926432,0.041879253229126334],[-0.014946538326330484,-0.028711888939142227,0.0016114604193717243,0.018518106662668288,0.022479940764606],[0.03903745389543474,0.044841282488778236,0.045834687631577255,-0.00005040334071964026,0.035584822040982546],[-0.01443145254161209,0.019100193027406932,-0.03100466220639646,-0.03317504154983908,-0.0043233488220721485]],[[-0.005945759196765721,0.030857388372533025,0.0020602161064743997,0.033102534245699644,0.04236515939701349],[0.022973673953674736,-0.04146695395465941,-0.019795001484453678,0.03254196362104267,-0.0065155215328559285],[0.014906429196707906,0.018587650172412398,0.0044872763101011515,0.02414976751897484,-0.02044825074262917],[-0.04085439902264625,0.036147889518179,0.031118891504593196,-0.029560695891268553,-0.02517568513285369],[0.012981537519954145,0.003837654017843306,0.03643273739144206,0.0017970516812056303,0.048655659938231115]],[[0.03757726533804089,0.009994530677795412,0.004476835113018752,-0.01877907088492066,-0.025531117850914598],[-0.03323563348967582,0.020339139178395273,-0.03987795833963901,-0.006286443094722927,-0.006750570912845433],[-0.046531629166565835,0.0075955348322168,-0.03731534837279469,-0.001389192487113178,-0.00947326694149524],[0.028983677458018067,0.03310106887947768,-0.04161459542810917,0.026232240069657565,-0.04701818525791168],[0.02086552616674453,-0.023863822501152755,-0.03538700225763023,0.003618759638629854,-0.005948352767154575]],[[0.004939690185710788,0.028235520236194134,0.03127567628398538,0.032134404545649885,0.007835797336883844],[0.027192608849145473,0.035686593549326066,0.034342786855995656,-0.026071228878572585,0.03816334235016257],[0.012656388035975397,-0.019157261145301165,0.014628904918208719,-0.04657310382463038,0.02152322817128152],[-0.011752091045491398,0.006658925185911358,0.018492152029648424,0.005432356148958206,0.010247292346321046],[-0.028972536651417614,-0.030125864781439304,0.012518303911201657,-0.020077388384379447,-0.0396478692535311]],[[-0.019119980256073178,-0.028674145275726915,-0.003353116591461003,0.0042042895685881375,-0.012157164420932532],[0.03091982137411833,-0.0030040682293474676,0.049768496723845604,-0.01680056981276721,-0.0416177244624123],[0.0435260368976742,0.020076502184383574,-0.03312448195647449,0.027214794466271997,0.034337186231277884],[0.02048532911576331,0.04947229737881571,0.029961238172836604,-0.03778151427395642,-0.031620946479961276],[-0.049913413589820266,-0.04701592023484409,-0.006598123232834041,0.042612699791789055,0.01862832810729742]]],"bias":0.011601261189207436},{"kernels":[[[0.004348463308997452,-0.020907790353521707,-0.04888474447652698,0.02419638519641012,-0.04409880195744336],[0.005609160964377225,-0.031516322516836226,0.03004930620081723,0.012537749600596726,0.020885164453648034],[0.027051037107594312,-0.03986482538748533,-0.01180206926073879,-0.0013447701930999756,0.009712724993005396],[0.01722123958170414,0.037814686493948105,-0.03521746755577624,-0.04468784464988858,0.014715254353359342],[-0.04614516326691956,0.021190192224457862,-0.03197430865839124,-0.027209674986079336,-0.03545705198775977]],[[0.005390545260161162,0.04838035565335304,0.04002043171785772,0.013799711666069926,-0.045767322112806146],[-0.04059703652746976,0.01006332403048873,0.02316790195181966,0.018969656922854485,0.027720971894450486],[-0.018375760107301176,0.006518332893028856,-0.014892393769696356,-0.01791362091898918,-0.0024784591514617205],[-0.02857481362298131,0.021388943609781566,-0.02777652912773192,0.04165981127880514,0.04598717943299562],[-0.04007123049814254,0.011008192109875381,0.009513095836155117,0.003262366564013064,0.02296164445579052]],[[-0.00883896597661078,0.04385144482366741,-0.004210321418941021,0.0056228677742183215,0.03297395212575793],[-0.03436384613160044,-0.024664120888337495,0.01741629189345986,-0.027205383870750666,-0.009870563144795598],[0.03144866281654686,0.01971032721921802,0.0398425912251696,0.011696920124813916,0.03786801770329476],[0.040229556174017495,0.0004022547509521246,-0.019410081207752228,0.04753411673009396,-0.04749647430144251],[-0.04675906146876514,-0.02582165626809001,0.03333942932076752,0.027574009331874552,-0.03450076442677528]],[[-0.02502696183510125,-0.013720891438424587,0.0199835121864453,0.040359748620539905,-0.006920365989208222],[-0.04983902997337282,-0.028201963054016232,-0.015110136521980167,-0.04204015261493624,0.005781015171669424],[-0.026835323753766717,-0.04261200027540327,0.027807087800465525,0.007123622973449529,-0.015302237076684834],[-0.03057477076072246,-0.026110395626164976,0.04382319387514144,-0.025041158869862558,-0.030451274174265564],[0.03522932571358979,0.04536152859218419,-0.030312433326616886,0.014319950458593668,0.049570609978400175]],[[-0.02383375964127481,-0.029735862999223175,-0.0020181124564260244,-0.039997936529107395,0.03217460222076625],[0.011900789570063353,-0.02085150934290141,0.005013806908391417,-0.022745789168402555,0.04923394629731775],[-0.03531096857041121,-0.005636694002896548,0.025265358621254563,-0.027861466933973136,0.03259229420218617],[-0.0046208365587517624,0.024823525547981264,-0.03256502554286272,-0.009332566987723112,-0.0024064731085672976],[0.019619755446910858,-0.028123908513225618,0.045870202151127165,0.023448742693290114,-0.04835158351343125]],[[0.020591756235808136,-0.031144604249857367,0.04048746200278402,0.038312844070605936,-0.02051752000115812],[0.04877444757148624,-0.03173614130355418,0.0280657623661682,0.017774189542979,-0.024247382930479944],[-0.011633916525170207,0.015073265577666462,0.04214847960975021,-0.01383962482213974,-0.033615885442122816],[-0.013687809882685543,-0.03215467748232186,0.03683410920202732,0.036677924217656255,-0.027310979133471847],[0.04294072098564357,-0.0365154572064057,0.026672422653064132,0.02816288582980633,-0.01905686538666487]],[[0.008929292089305818,-0.04224337243940682,-0.022739687701687217,0.0018749660579487682,0.015622516279108822],[0.03504581521265209,0.04550711635965854,0.04779923271853477,0.032533313636668025,0.01545218883547932],[0.007879262510687114,0.00872205866035074,-0.01602917255368084,0.015370160224847496,-0.02015007107984275],[-0.0052299666684120895,-0.0204974438296631,0.032154572452418505,-0.0020727362716570497,0.005383481155149639],[-0.04201845340430737,0.002510329894721508,0.04780691170599312,0.006288687442429364,-0.01839910657145083]],[[0.013010560208931566,0.035656880913302304,-0.004460362740792334,-0.03657982954755425,-0.04222624048124999],[-0.021246965508908033,-0.016316157369874417,-0.02737745319027454,-0.009971119859255851,0.01729356306605041],[-0.0410037930123508,-0.0024827078450471163,0.024422446009702982,-0.007922626147046686,-0.03990980626549572],[-0.011752287950366737,0.006984907295554877,0.01801549836527556,-0.02435687731485814,-0.0075497331097722055],[0.04636984046082944,0.04675259126815945,-0.03666843136306852,-0.04605469407979399,0.0007959596579894424]]],"bias":-0.02204601033590734},{"kernels":[[[-0.009998258901759982,-0.004754617414437235,0.007397441589273513,0.005201869318261743,-0.010203184979036451],[-0.04508877261541784,0.020541215245611966,-0.02123455258551985,0.04104483597911895,-0.047138514951802796],[-0.0280520117841661,-0.03245876298751682,0.043861974589526655,-0.041200541215948766,0.019508604495786133],[0.03966551995836198,-0.02284301230683923,-0.03412338811904192,-0.045754770911298696,0.04074973980896175],[-0.004211785225197673,-0.04073894482571632,-0.027898204606026412,-0.023876411304809154,-0.03168940909672529]],[[0.014886716171167791,0.016523376386612654,0.0053230037447065115,-0.00007224462460726499,0.014857037807814777],[-0.018245406774803997,0.01473180358298123,-0.0077158760279417045,-0.04351620685774833,-0.029321402614004913],[0.0376482475316152,-0.0022818446392193436,0.020963351242244244,-0.03639197726733983,0.04353108634240926],[0.007481709029525519,-0.004729882162064315,0.03922552664298565,0.00615584752522409,0.02988958489149809],[-0.02903764962684363,0.007314188429154456,0.030666958773508668,0.0239201596705243,-0.0066161484923213726]],[[0.03208744286093861,-0.04449963851366193,-0.01499311316292733,0.03389437673613429,-0.04182430845685303],[-0.03256633661221713,-0.03150729921180755,0.03703241476323456,-0.030893618264235558,0.03652470610104502],[0.03958740085363388,0.01955631459131837,0.005392616963945329,-0.03796119915787131,0.04903103786054999],[0.007689055241644383,0.025380062311887743,0.001943778619170189,-0.016974321845918895,0.0010342975612729788],[-0.024347661621868612,-0.046663096128031614,-0.019972475152462723,-0.004687837581150234,-0.03664742952678353]],[[0.013641788274981081,-0.0025886791991069913,0.046913165156729525,-0.000889317155815661,0.045878787804394965],[0.040340323396958415,0.03880758520681411,-0.003878933773376048,-0.013396415766328574,0.010929216933436693],[-0.037919460004195576,-0.03675765390507877,0.0008354623802006245,-0.04614882247988135,0.04418662763200701],[0.011007531289942564,-0.017756993276998402,-0.027590069710277023,-0.009568078466691077,0.04822138817980886],[-0.025711275986395776,-0.03308819343801588,0.023495949618518353,-0.02657569176517427,0.00699453295674175]],[[-0.007998992293141783,0.02406298303976655,0.02101767973508686,-0.012217453680932522,0.03931044817436487],[-0.018611313006840647,-0.028676026104949418,-0.025478222104720772,-0.010226286877878011,0.01740491297096014],[-0.004563372582197189,-0.03667474717367441,0.03999545932747424,0.015069707110524178,0.04101672628894448],[0.01798913178499788,0.0030222866917029023,0.028925431822426618,0.024688737420365217,0.013691657665185632],[0.002588336798362434,-0.029995486466214062,-0.0067815984133631,-0.01247178849298507,-0.015060854819603266]],[[-0.008707519597373902,-0.048621661728248,-0.01194716221652925,0.02247182845603675,0.010091153508983553],[0.03592946196440607,0.018415606999769806,-0.0499718701466918,0.04931168123148382,-0.021840218151919544],[0.015387691417708994,-0.008428018190898001,0.007304130541160703,0.03697042225394398,0.04535065013915301],[0.027250718185678126,0.03318172497674823,-0.04018388341646642,-0.005772873712703586,0.0016493559814989567],[-0.03770295942667872,-0.018017241917550563,-0.009983213082887233,-0.012327438080683352,-0.04787719063460827]],[[-0.009408462280407549,-0.01805246921721846,-0.003817154630087316,-0.03637284159194678,0.0181205672910437],[-0.031131856865249576,0.02106609083712101,0.013619937212206425,-0.03823765064589679,-0.039796376368030906],[0.03367088499944657,0.04189480405766517,0.023595131374895575,0.0018621661001816392,-0.04478714391589165],[-0.002960248151794076,-0.025602230965159834,-0.028090584417805077,-0.04531424317974597,-0.03194668919313699],[-0.022427576733753087,0.00491740768775344,-0.04282901550177485,-0.0346917278598994,0.031891005020588635]],[[-0.000996765331365168,-0.041243979986757044,-0.04235639811959118,-0.018138046842068434,-0.015677428641356527],[-0.048367849295027555,0.0292675064643845,0.0025304286973550916,-0.032761980313807726,-0.02826003320515156],[-0.023313218634575607,0.0056915431516245014,-0.004042405332438648,-0.04082499751821161,-0.01938794832676649],[-0.04551215912215412,-0.043010117136873305,-0.04260847284458578,0.001955240243114531,0.03337513736914843],[-0.038319002091884616,0.0315490601817146,0.04375386447645724,0.0020388283068314196,0.03421092254575342]]],"bias":0.009093317738734187},{"kernels":[[[-0.04645425865892321,-0.016468238667584956,0.03510305201634765,-0.021913251001387836,0.009885696740821005],[0.03847027667798102,0.03226072071120143,0.024086334626190364,0.043107659602537755,-0.02241756422445178],[-0.022348515619523824,-0.04497672135476023,-0.002541187545284629,-0.0137201773468405,0.011059507331810893],[0.018816825351677835,0.010463777603581548,-0.022109557711519304,-0.04721137208398432,0.010543754068203272],[-0.02975246678106487,-0.015054021799005569,-0.03268274920992553,0.025098605756647886,0.04414882163982839]],[[0.013614071579650045,-0.0075931762345135215,-0.03679144158959389,-0.031735993921756744,0.013498934707604349],[0.03261247135233134,0.005412982450798154,0.018134120758622887,0.01918870012741536,0.0037087704055011276],[-0.030702483863569798,-0.027627121307887137,0.0492902664700523,-0.02442736786324531,-0.030822042655199767],[0.03959632318001241,0.036819689883850516,0.04363013685215265,-0.03264408227987588,-0.0011692301137372853],[-0.02046474781818688,0.016196019598282874,0.030964528163895014,-0.03861809745430947,-0.04827977658715099]],[[0.03395740201231092,-0.027270437707193198,-0.015188289643265308,0.04986750578973442,-0.041304466105066245],[-0.02346949107013643,-0.04973695729859173,-0.021463240846060216,-0.023420739150606096,-0.027571451500989497],[-0.044090703083202246,-0.00402175176423043,-0.003302955790422857,-0.008989317971281708,0.031203373009338977],[0.024317708727903665,0.04063708155881614,0.018150465236976745,-0.02811779242474586,-0.033293180051259696],[0.03994138706475497,0.02546306315343827,-0.035049717291258276,-0.04809665717184544,0.014458511560223998]],[[0.004084407514892518,-0.014660744182765485,-0.04795351026114077,0.00591307170689106,-0.008221426140516996],[0.018834130582399668,0.021839474653825165,0.0001070687547326088,-0.0066556968493387105,-0.0017442818731069566],[0.04371336570475251,0.044434116664342584,-0.013537243730388582,-0.02989664131309837,0.0488332741893828],[0.030383651680313054,0.026108570164069533,-0.012755130417644978,0.03266334179788828,0.006485518091358245],[-0.02231104976963252,0.019603762472979725,-0.010474879923276604,-0.0418185574002564,0.04002789042424411]],[[-0.016797938477247955,-0.018130316585302352,-0.030575638520531356,0.04847203313838691,0.03374682967551053],[-0.04964324540924281,0.020042669586837293,-0.034956245427019896,0.010580356069840492,0.006554385065101087],[-0.007312782690860331,0.019676612433977426,0.008477383386343717,-0.0434421454789117,-0.030948435072787106],[-0.04078132377471775,0.04372628841083497,0.0443655988201499,-0.012770210392773151,0.0077768831048160795],[-0.020593483583070338,-0.04990250528790057,-0.0007194377947598696,0.012467975192703307,-0.02694287681952119]],[[0.010671781608834863,-0.02735852273181081,-0.029105506604537368,0.020100591820664704,0.021680563781410457],[-0.038519000331871216,-0.006595313805155456,0.04360202974639833,-0.014315255568362772,-0.03894530064426363],[0.014079999993555248,-0.00964654644485563,-0.04725574792828411,0.016553355217911302,0.0012698275269940496],[0.03376176946330816,-0.033852897887118164,0.03954177449923009,-0.022560826595872642,0.029159877286292615],[-0.001989323855377734,-0.01989730705972761,0.03439633939415217,-0.02680203055497259,0.024625190813094378]],[[0.02091981132980436,-0.00026318032760173086,0.017405091947875918,-0.01609521503560245,0.00495215361006558],[0.015893253567628562,-0.010971279558725656,-0.022726401151157916,0.014259120100177824,-0.011679572914727033],[-0.039417428476735954,0.03223993019200862,0.03279236759990454,0.03751773373223841,0.0024228210793808104],[-0.033649253356270496,0.04171494024340064,0.03950617082882673,0.02611597685609013,-0.012778219906613231],[0.021819338551722467,0.019546644925139845,-0.03933391012251378,0.0303504808107391,-0.032398335332982246]],[[-0.023787854751572014,-0.0070946595398709185,-0.023037698026746514,-0.03807755294255913,0.03828212486114353],[0.02919049756601453,0.021857374068349603,0.04095177866984159,-0.03726180826779455,-0.006650826148688793],[-0.029065332701429726,-0.010848486609756947,0.013091436470858753,0.016860602027736604,-0.03224953336175531],[0.005347615852952004,0.00880102759692818,-0.045790688181295995,0.04831857476383448,-0.046552692609839144],[-0.009693364682607354,-0.028567741275765002,-0.021038890420459214,0.04189611810725183,0.02930139501113445]]],"bias":0.011619383073411883},{"kernels":[[[-0.0011182473273947835,-0.049609408178366725,-0.01750191915780306,0.03133767326362431,-0.016282543912529947],[-0.013981011789292098,-0.049350080033764246,0.020624395622871817,-0.027341432962566616,-0.003176602046005428],[-0.023206768697127702,-0.0003256453666836024,0.04990325837861747,-0.02810579228680581,-0.02390786032192409],[-0.03301726554054767,0.021655482146888973,0.033552015642635526,-0.024427793105132878,-0.019434695784002545],[-0.045969553687609736,-0.014102093502879144,0.00635780761949718,0.02292989834677428,0.013589714770205319]],[[-0.00923785362392664,-0.016206123912706972,0.030923378933221102,0.012231314065866174,-0.03888931004330516],[0.04966587396338582,-0.03374324231408537,-0.020861856266856195,-0.01563802296295762,-0.04259760356508196],[0.027676755329594016,0.002187390951439738,0.013065908057615162,0.02252979911863804,0.02888714489527047],[0.02283967440016568,0.016085473471321166,-0.023349509038962424,0.0123506891541183,-0.027384199178777636],[-0.042782491398975254,-0.022442553588189185,0.005714374291710556,0.018948021484538915,0.036572029697708786]],[[0.04933511225972325,0.04379439223557711,0.039703223435208206,-0.044869215041399006,-0.002200504974462092],[-0.03530346013139934,0.010005864431150258,0.0015894565964117648,0.009285663883201779,-0.00648113472852856],[0.0075823615770787,-0.03220177863258868,-0.04376324580516666,0.02484080092981458,-0.006657147081568837],[0.017188518308103085,0.04504870134405792,-0.019603503029793502,-0.009948957804590465,0.011261356342583895],[-0.0010799085954204203,0.0267974870512262,-0.0171232478460297,-0.03638508138246834,0.020001433463767173]],[[0.0299978205235675,-0.006559250759892166,0.0002426699036732316,0.01740515783894807,0.04066905495710671],[0.04763871829491109,-0.02634044324513525,0.006937979930080474,-0.00016252391505986453,0.004896477283909917],[0.04903767253272236,-0.033772646868601444,-0.019159753806889057,-0.046190731599926954,-0.007369443448260427],[0.04357410878874362,-0.026247536996379495,-0.026974964002147318,-0.028314679325558246,-0.04619782231748104],[-0.048099180310964586,0.0018672786420211196,-0.04922259629238397,-0.007985416823066771,0.02262088223360479]],[[0.0028918955242261293,-0.038755999272689225,0.03567014513537288,0.02134660528972745,0.018339576083235443],[0.049787311884574595,0.034284454351291065,0.0005416329484432936,-0.004805651912465692,0.017851927783340216],[0.021090417332015932,-0.039060921990312636,-0.0017572828102856875,0.017161909700371326,0.02428156116511673],[-0.0071866599610075355,-0.04387120681349188,-0.021092225681059062,-0.03714253874495626,-0.04492466105148196],[0.04559917119331658,-0.03842163714580238,0.044151906063780194,-0.02192862560041249,0.03306956770829857]],[[-0.03920616866089404,0.017906584008596838,0.01783801200799644,-0.006479935743846,-0.0154748170170933],[-0.002427178854122758,-0.03962080301716924,-0.02371137468144298,0.0012816264294087888,0.04280949051026255],[-0.03419782491400838,-0.023573062429204584,0.036076863808557395,-0.019202514551579952,0.005937307165004313],[-0.0014343120390549304,0.0460021936101839,-0.04890778949484229,-0.022129882010631263,-0.048671369836665694],[-0.042269618692807855,0.00014088323805481196,0.044345575897023086,0.042022964311763646,0.03799199622590095]],[[-0.020599970710463822,-0.0010278856847435237,0.03845470265951008,0.0424613498384133,0.04570975522510708],[0.04495243378914893,0.03334511467255652,0.04526042605284602,0.002045205235481262,0.03917759354226291],[-0.03336053704842925,-0.00023007623385638,-0.04335022817831487,-0.011341433180496097,-0.021851747320033612],[0.027301662764512003,0.02899698300752789,0.03618753899354488,-0.0481870447518304,-0.049776471825316554],[0.005631105182692409,0.010799821559339763,-0.034588021854870026,-0.0371190182864666,0.039126373711042106]],[[-0.040541020105592906,0.00301843888591975,-0.004072938719764352,-0.035080247488804166,0.014702008618041874],[0.010213064285926521,-0.018671424686908723,0.048632483812980354,0.03838925235904753,-0.0005993103375658394],[-0.02435287123080343,-0.014288390637375414,-0.033290813327766955,-0.022885572304949166,0.03512379387393594],[0.0020879147574305533,0.010890688397921622,0.0067106397356837995,-0.012181719788350165,0.022267346945591272],[-0.005822650948539377,-0.0062626631464809185,-0.035020180768333374,0.043530059163458645,0.049253887287341064]]],"bias":-0.008688556565903128},{"kernels":[[[0.004592037689872086,0.006751320394687355,-0.03087282222695649,0.012087456462904812,-0.0033361132489517333],[0.039950246922671795,0.04262286277953536,0.016142332018353047,0.01061253061052412,-0.007252125279046596],[-0.03257499712053687,0.0178198182489723,-0.048586591915227476,-0.012135874875821174,-0.02430986452382058],[-0.036500749085098504,-0.04187341548968107,-0.04021054822951556,-0.030517860059626402,-0.026465130201540888],[-0.04775788618717343,0.02074638295453042,0.03895857629831881,0.02046746478881687,0.00004876472521573306]],[[-0.011572979157790542,-0.02038861226756126,0.03227216731756926,-0.0372522221878171,-0.039724010368809105],[0.02759654975961894,-0.030021407548338177,0.01890131738036871,0.0456673669628799,-0.044350898312404755],[0.02292553361039609,-0.043132446263916796,-0.023559003369882703,0.021488700155168773,-0.036047297483310106],[0.01205052617006004,-0.027432850748300555,0.0022986709605902433,-0.01420634116511792,0.03051899939309806],[0.048523115436546506,0.027327844477258625,-0.022921617375686765,0.03288555047474802,0.02834131461568177]],[[0.034131720452569424,0.017837667069397867,-0.04094480560161173,-0.03893951214849949,-0.008554088114760817],[-0.04612276332918555,-0.030919248261488976,0.04922567245084793,-0.02038670205511153,0.04536683282349259],[0.02545796479098499,-0.02483221769798547,0.020461369305849075,-0.013702766201458872,0.015324370726011694],[0.043514889967627826,0.02804775848053396,-0.01324567054398358,0.04146097616758198,-0.045651389029808344],[-0.013911474915221335,-0.04557914601173252,-0.04894705573096872,0.02204978489317,-0.005491518159396947]],[[0.0010270427679643036,0.007110162079334259,0.0028028087224811317,-0.03139897296205163,0.04620298044756055],[0.036335494136437774,0.04938591120298952,-0.009897507447749377,0.04699873323552311,0.018669099407270552],[0.038593581039458515,-0.03248483706265688,0.005850964249111712,-0.023784008040092886,0.03166217315010727],[-0.030544490972533825,-0.0158676884137094,0.03472163081169129,0.03540295432321727,-0.023224471230059864],[-0.035091652255505326,0.030338544491678478,-0.0173482249956578,-0.02070210697129369,0.008055638568475843]],[[0.01291209296323359,-0.026421113708056512,0.004109033802524209,0.01172068351879716,0.01075242345687002],[0.04228380983695388,-0.0039032185450196266,-0.01589905032888055,-0.04811686992179603,-0.037730343244038525],[0.012257288699038327,0.034622082998976116,-0.029575800499878825,-0.03763052755966783,0.0027003440074622634],[0.03778097846079618,-0.037248898996040225,-0.038539655460044744,-0.009774378361180426,0.0121750544058159],[0.004029602254740894,-0.010319251916371286,-0.025049745407886806,-0.0014183315914124252,-0.027973081008531155]],[[0.035168645950034265,0.04359706742689014,0.0375019368249923,-0.03519552126526833,0.012853839457966388],[-0.015279925614595414,-0.027210193057544532,0.02078088156413287,-0.04433206776157022,-0.034854736854322256],[0.03415370029397309,-0.020476990751922133,0.009921512962318958,0.031036186660639942,-0.04109457219019533],[0.038105987827293575,-0.01045361866708845,0.039824749575927854,0.044771735696122056,0.0423260193085298],[-0.04360088044777513,0.04644868443720043,-0.00497308224439621,-0.031743997870944445,-0.023085119528695942]],[[-0.003940076264552772,-0.03124199660960585,-0.012380247190594674,0.0017227067146450281,-0.0025396015960723163],[-0.038244484155438845,-0.01120478636585176,0.026704323245212436,0.019636668567545715,0.03564877808094025],[-0.035526369721628724,0.015587661252357067,0.008240421558730305,0.048823380609974265,-0.013367070863023401],[-0.044119305443018675,-0.037783729494549334,0.0005032233428210021,0.04482673252932728,-0.0027785214362666013],[0.021705911261960864,0.039456870034337045,0.012661107536405326,0.022001764830201866,0.04276613229885698]],[[-0.024565052380785348,0.0378640818875283,0.0481569959083572,0.03091622809879482,0.014394652284681798],[0.034923269390128554,-0.04431007138919085,-0.04482193586882204,0.0008249655831605196,-0.03278155019506812],[-0.017149646300822496,-0.049386193579994145,0.008679519942961634,0.03818746048491448,0.007358845043927431],[-0.013542100717313588,-0.012071399274282158,0.0064701431198045615,-0.02540330921765417,0.0488386417273432],[-0.03369348305277527,0.023613729211501778,0.03978758694138378,-0.028094579768367114,0.031175353727303446]]],"bias":-0.04075404249597341},{"kernels":[[[0.016578330798074605,-0.049668225855566565,-0.02765093203634024,0.009073805762454867,-0.0013270841212943197],[-0.04091521250084043,0.017065718304365873,-0.04507334518712014,-0.037860746355727316,-0.012847209861502052],[0.02826626857277006,-0.040748049761168664,-0.03805154131259769,-0.03309515635482967,-0.009155339351855219],[-0.004453591140918434,0.005306978733278811,0.0060429755132645376,0.03627378516830504,-0.03763999468646944],[-0.03914968853350729,0.0363777932478115,0.040358476573601365,0.03985979522112757,-0.03751162011176348]],[[-0.026651313342154027,-0.03333839401602745,-0.015390619076788426,0.004233712051063776,0.00804408530239016],[0.016847524652257563,-0.033360156673006715,-0.01600888550747186,-0.043176357331685726,0.005961019149981439],[-0.03792099852580577,-0.01746888749767095,0.013125671143643559,0.002198166376911104,0.009664395661093296],[0.028965584561228754,0.0324371132766828,0.021483265911228955,-0.038632444036193196,-0.008974339859560133],[0.034712607879191636,-0.016601665085181596,0.008760429127141834,-0.04925174158997834,-0.017359085730277002]],[[-0.018414870905689894,0.049551763315685095,-0.0033456585370004177,-0.0009326896630227566,-0.02777832425199449],[0.04337658141739667,-0.04668535077944398,-0.016219509555958214,-0.028372436249628666,0.012041009310632945],[0.010660118772648275,-0.011430315277539195,0.04064161712303758,0.0035436663543805483,0.047061338531784715],[0.041836799285374586,-0.04309985486324877,-0.015917712333612145,-0.03730888820718974,0.020878705522045495],[0.048836950794793665,-0.039036878407932823,-0.01858283644542098,0.004800712782889605,0.04563189535401762]],[[-0.00973400736693293,-0.04440744807943702,0.0012136092642322184,0.045544597227126365,-0.04531614212319255],[0.03005397140514106,-0.03910909949336201,0.006091128266416491,0.026813394948840143,-0.009680106956511737],[0.041324157896451656,0.04284189082682133,0.026570417755283418,0.006862292368896306,0.015955888759344818],[-0.03324234420433641,0.0248723327415064,-0.012922657025046648,0.03444626431446523,-0.0334299988579005],[0.03553675112780184,-0.024230270343832672,-0.03761729556135834,0.03173700114712119,-0.011904578609392048]],[[-0.03754694419912994,-0.018742344714701178,0.0036503989016637207,0.012330567580647767,-0.047878495929762725],[-0.030785101745277644,-0.03065406810492277,-0.022287305630743506,0.027134546451270582,0.030054747685790063],[-0.035564895672723654,0.030919972131960096,0.04215723667293787,-0.009311228687874974,0.03670198144391179],[-0.035296963946893814,-0.006661874777637422,-0.04475268425885588,-0.031162052601575854,-0.03454586064908654],[-0.002387931803241372,-0.03366763661615551,0.04063807984348387,-0.04828821532428265,-0.003955386672168971]],[[-0.020465907943435016,-0.004660397255793214,0.026210593339055777,-0.015498522366397083,0.034418053063564005],[0.036846978287212555,-0.010369067452847958,0.044162781164050105,-0.04303587712347508,-0.029133204580284656],[-0.029460650100372732,-0.047035853215493265,-0.011634963960386813,-0.04760137081611902,-0.013804093329235913],[0.011580931581556798,-0.011947140702977777,0.02853292776271701,0.001011691545136273,-0.01481340655591339],[-0.021211725217290225,0.02536746372934431,0.04753754541743547,-0.048110151011496786,-0.002232261537574232]],[[0.047347937780432406,0.017076179152354598,-0.04013870714697987,-0.01509826632682234,-0.005948821152560413],[0.0005369604798033834,-0.029960241541266443,-0.011594159970991315,0.007672508317045868,0.03085404536686838],[-0.036500530573539434,-0.032239932217635214,0.03939170590601862,0.044488439220003784,0.00760131785646081],[0.043136857589706784,-0.028299031127244235,0.03266644843388349,-0.040067291678860785,0.029768015746958556],[0.02894689596723765,-0.022682319674640895,0.014192697941325605,-0.0038994993083178997,-0.026932954159565273]],[[-0.03023877542000264,-0.04905924492049962,0.023515040427446367,-0.026407552463933826,0.004236732120625675],[0.03285374147817493,0.014302248158492148,-0.038841681298799814,0.02563461291138083,0.048452539416030053],[0.01813403549604118,-0.042889786045998336,0.02173644741997123,-0.01922793365083635,0.007850261335261167],[0.04619883368723095,-0.006587050179950893,0.02964077258948237,0.04461491075344384,0.006685140053741634],[-0.010472398973070085,0.04675684119574726,0.03125802604481578,-0.0007607616484165193,0.044601133675314486]]],"bias":-0.014498760015703738},{"kernels":[[[0.015627397503703833,0.027355382265523077,0.019153923308476806,0.008768083853647112,-0.02431690169032663],[-0.025862592924386266,0.0430753474123776,0.030742970178835094,-0.030154950870200994,-0.0462699567899108],[0.013907258911058307,-0.018652948481030763,0.01135207242332399,0.006265278300270439,-0.04445169377140701],[-0.04935293146409095,0.0005678842077031732,-0.003478826116770506,-0.0046641135588288305,0.024114954168908298],[-0.04413496276829392,0.004283226281404495,-0.013537139119580389,-0.003357104677706957,-0.0021286888979375365]],[[-0.017624736949801444,0.005628961417824031,0.012048277538269758,-0.03305316674523056,-0.0020761165535077455],[-0.02844632600899786,0.045456611691042786,0.04473082113545388,-0.014023327920585872,0.04275891000870616],[0.004440610576421022,-0.04452059813775122,0.016975769633427264,0.010564148309640586,-0.017004999704658987],[-0.012090507987886669,-0.003490678081288934,0.004900145041756333,0.020869729458354414,-0.03742908411659301],[-0.024292631819844247,-0.030493442970328036,-0.0036413464928045872,-0.04893886579666287,0.03592118381056935]],[[0.030177206615917385,0.028131612553261222,0.034593140427023175,0.02356997767928988,-0.004989965562708676],[0.03560510259121657,0.009045176138170064,-0.008948846883140505,-0.0056801683269441135,0.03144018915481866],[-0.013367488863877952,0.042516935174353426,-0.016746453708037734,-0.027783255511894825,-0.021084159100428226],[0.049772742134518926,0.009530513267964126,0.0036341146333143115,0.04415580416098237,0.012962155835703017],[0.014719673478975893,-0.0382414594758302,0.03935030696447939,-0.0114903312176466,-0.033013106882572175]],[[0.00441959504969418,-0.025111447111703458,0.04420680892653764,0.00693888959940523,-0.03693417820613831],[-0.017604631185531617,0.029577800678089263,-0.032770219701342286,0.008520438452251256,-0.015410414990037681],[-0.023698386689648035,-0.02435449801851064,-0.04764095856808126,0.010374528309330345,0.021086807758547366],[0.03978717871941626,0.022997192246839406,0.017728039482608437,0.015258969645947218,0.02966494744177908],[0.019095122674480082,-0.03283164508175105,-0.009451991505920888,0.040948232659138745,0.014548790128901602]],[[-0.02586057393345982,0.04505917243659496,0.032715211459435525,0.03671433441340923,-0.042529043508693576],[0.03909542891196907,0.03922193164471537,0.033957420964725316,0.007002510526217521,-0.026091998303309084],[-0.026422999892383815,0.034054955048486595,0.013736930419690908,0.04877548969816417,-0.029030493553727867],[0.025955467368476093,0.04557298370637,-0.015823381021618843,0.048173382948152724,-0.03404413568787277],[-0.010556776844896377,-0.0023774492787197233,0.009231020673178136,0.030345554533414545,0.015493455552496017]],[[-0.03396093416959047,0.023948043398559094,-0.04381023212336004,-0.009554686676710845,0.030441626394167545],[-0.016615698952227833,-0.03976027485914529,-0.0057514124317094685,0.0028061331948265435,-0.027712203841656447],[-0.038765112031251193,0.044212157581932844,-0.01515437422785908,-0.00614738769363612,0.037327965791337195],[-0.0016656694235280157,-0.011339586623944343,-0.039205896249040965,-0.016843663714826106,-0.02853311423677951],[-0.014161477168090643,0.03545348541811109,-0.04390142625197768,0.03929792609997094,0.0190241061616689]],[[0.036981644504703585,0.03524485705420375,0.037463493389077486,-0.020693389931693673,0.0010823565302416683],[0.02118207444436848,0.037506808154284955,-0.04832804447505623,-0.04682264502625913,0.03664734484627843],[0.03733998551033437,-0.002810207009315491,0.04095176807604731,0.029244479606859386,-0.03190221837721765],[0.01906793615780771,-0.03475669089239091,-0.00908503371756524,0.01691661016084254,0.025674679339863362],[-0.028615115419961513,0.024860082077793777,0.04459674844983966,-0.04806204272899777,-0.002366895414888859]],[[-0.020962647907435895,-0.0467134122736752,0.023719140538014473,-0.03857034139800817,-0.04318713028915227],[-0.00828874153085053,0.008687688503414392,0.0034356050891801715,0.03416607710532844,0.04237870385404677],[-0.03131925761699677,0.016025762935169042,-0.00882532608229667,-0.013744051079265775,0.020957674831151962],[-0.000017224042676389217,-0.006565134995616973,0.043994134617969395,0.01259931279346347,0.047147384262643754],[-0.047771993651986124,0.04332592957653106,-0.024843794340267778,0.018093272997066378,-0.0004186078440397978]]],"bias":-0.0246742713265121},{"kernels":[[[-0.019460098631680012,0.027531321230344477,-0.009838896710425616,0.04025783671531827,-0.00971133892890066],[-0.04624116618651897,-0.027115257526747885,0.04220013404265047,0.030953803192824127,-0.041730562783777715],[0.022251407103613022,-0.028281593136489393,0.03205402928870171,-0.009700534702278675,0.031964422180317344],[-0.012615399109199643,0.02957103995140642,-0.019072733982466162,0.032482113619335,0.015205313824117184],[0.03062031092122197,0.04196863875258714,-0.00509084255900234,-0.044484543381258845,0.003928111516870558]],[[-0.03724676722194999,0.0019064578926190736,0.030529274861328306,-0.02712631388567388,0.03604802866466344],[-0.038219209783710545,0.017356093251146378,-0.04926275839097798,-0.002631564345210791,0.0003418328706175089],[-0.024142298940569164,0.003900073701515794,-0.0028255220968276262,-0.04678175945300609,-0.0456937356851995],[0.0003197445534169674,0.010953500727191569,-0.02115957837086171,0.04399800435639918,-0.04130550231784583],[-0.019073284161277116,0.03755912818014622,0.0016511368798092009,-0.03057093860115856,0.0458997669396922]],[[0.04239679297897965,0.02304647108539939,-0.034014240955002606,0.03682108034845442,0.04740279281977564],[0.04315574343781919,0.004119045753031969,0.021242756256833674,-0.02486530395690352,0.044126684148795906],[-0.026475481782108547,-0.0486016865586862,-0.0029477739473804834,0.013011516281403603,-0.01590453996323049],[0.018933009961619975,0.01120470731984824,0.036564060905948284,-0.009978211927227677,-0.012823581718839705],[-0.031195971835404637,-0.04099375850055367,0.04611025888007134,0.04354061812628061,0.020813651499338448]],[[-0.028860144363716245,0.04817335770931095,0.0040099539561197165,0.013828004733659327,-0.028590641263872386],[0.03857294227927924,-0.03387801691424102,-0.047606328548863534,0.026901352824643256,-0.036863712570630015],[-0.010837842151522637,0.024774105986580253,0.0025835117558017373,-0.021733842743560675,0.03488873788155616],[0.04069513198919594,0.021741070481948555,0.04004378472454846,-0.020007715793326497,0.005418592924252153],[-0.021189051587134602,-0.048021648102439946,-0.03220046821516007,0.012168521899729967,0.019100860087201]],[[-0.022647412423975766,-0.0252846208633855,0.03924439130350948,-0.037021455285139386,-0.01935415000189096],[-0.045434090937487785,-0.04985257417429239,-0.04361120723187924,-0.009091559518128635,-0.03916803160682321],[0.029809597320854666,0.01778388733509928,0.0001979137770831585,-0.029167921282351017,0.02273661969229579],[-0.043632630701176824,0.036466858838684856,0.028820364037528634,-0.03532917995471507,-0.03835247217211873],[0.03941429532133043,-0.04446830025408417,0.02381916795857251,0.016277849674224854,0.032042230805382134]],[[0.003446761495433748,0.006914417468942702,-0.043172560282982886,-0.046132962522096935,-0.03555176653899252],[0.0473293487681076,0.014749834104441107,0.006308373040519655,-0.02166653168387711,-0.003433185745961964],[0.025372963561676443,0.015800365037284794,0.0017507948214188218,0.009533351962454618,0.03549023242667317],[-0.0033194090006873015,-0.019133375748060646,0.037103333650156854,0.0036526990355923773,-0.029851618222892284],[-0.015221058204770089,-0.008676950028166175,0.0000739645678550005,0.04975888465996832,0.02739699799567461]],[[0.04782238972838968,-0.03029442101251334,0.0390038353856653,-0.017622826714068653,-0.04240992444101721],[0.02551089527551085,-0.031711563002318144,0.041532871825620536,0.016038449970074,0.01385743096470833],[-0.013155178539454937,-0.04239372659940273,-0.043596909497864544,-0.0005526015534996987,0.04387899551074952],[-0.017193524935282766,-0.00360838919878006,0.009045159188099205,0.022231369046494365,-0.049864509934559466],[0.03106498990673572,0.006748774647712708,0.020922027342021466,0.0017964554484933616,-0.012032035109587015]],[[-0.039933785097673535,-0.048404223006218675,-0.014607974397949875,-0.022923637251369658,0.04580478628631682],[0.009366228547878564,0.002761655836366117,-0.016522520896978678,-0.018511617626063525,0.000041932612657547],[0.027324480423703792,0.021218981011770666,0.049216752871870995,0.04972683598753065,-0.022042338619939983],[-0.04757637127768249,0.02817393692675978,0.001536122220568359,0.049718292662873864,-0.005250746873207391],[0.01737509903032333,0.0039460931438952684,-0.01548418472521007,-0.03601405413355679,0.016260033613070848]]],"bias":-0.0015427559148520232}],"fc1":{"weights":[[0.009591905147434106,0.04009650723826728,0.04631835244360011,-0.00915148149078633,-0.034129087832603856,0.009033072495856685,0.03901443531567059,0.00665356153757113,-0.02612383786227131,-0.007016875485822303,0.01875037186143704,-0.0008441256389371643,-0.02772256144443331,-0.021509129637321378,0.05546039001421639,0.025645012592658778,0.10424479916758778,0.023582514136855585,-0.04818958291101491,-0.053862073973058526,0.11447152465107183,0.013345918118867693,-0.10168345069970251,-0.030709143266907355,0.0485495048586372,0.03896389079521801,-0.06786128537313765,-0.012529781937784316,0.010417813048425645,-0.01270141168515914,-0.0716356698240941,-0.031768297840138966,0.03039981688487794,-0.0021770540303018126,0.01096212132448789,0.004498510313042649,0.01062824301734254,0.016440522785122483,-0.006467292742784822,-0.0007679455665967784,0.024527816818475216,-0.008292486506810418,-0.01958816993535506,-0.006778798209742144,0.01755398578844486,-0.015172182956314333,0.01600740409006004,-0.016135393632207368,-0.06578456746181555,0.03175166228142657,0.13146259173171698,0.047539545595890804,-0.0807059671824559,0.027026062206908442,0.17470080590477877,0.07052494642924084,-0.0415291242980421,0.017107239828220176,0.09114424428894642,0.0501184762769938,-0.012801621686533975,0.029130568261298503,0.13078753646596977,0.0522803374927768,0.08423012987885652,-0.01563416073219497,-0.011183578724926625,0.043249074985922335,0.05891727645967276,-0.02397310518717508,0.025268680236386096,0.08156824387637604,-0.02497042963775024,-0.06238241576061692,-0.028122033910237706,0.04250449871539149,-0.07909659165408582,-0.04229249869795085,-0.0115642547508925,0.07723809543567794,0.006690117295417896,0.007647064090807063,-0.01110820557947879,0.0234546510020254,0.004932016253042428,-0.0008489656691129371,0.020391059259092886,-0.01836229205519855,0.008661821530607345,-0.012160381517667414,0.029915648373340355,0.016345465858726958,-0.004462448731177967,0.012671473102125578,0.024004848792221374,0.007673755907527463,0.042980402203267175,0.06006484132664559,-0.06278877421999812,-0.03298355652630584,0.08459046139498587,0.07462625186836346,0.007751783475496758,-0.0370706111915445,0.013661720556381948,0.0014689612572872446,-0.04324429379120815,-0.0403997443503393,0.03241050381047895,-0.0011704360590914177,-0.008418779078048961,-0.06783014856296335,0.07594824054409573,-0.008277981522279777,-0.07683373555846792,-0.008654751119621178,0.05120766656148762,-0.03821407343395689,-0.09035213932938468,-0.0035604413535341548,0.05148801299508198,-0.007704407731635035,-0.044968626181177626,0.03949784767245774,-0.0069671102524261,-0.06264653004146084,-0.11626627478952538,-0.08141705482660419,-0.009843757342551678,0.013898505191653534,0.003039468899667482,0.017023265465545275,-0.0176381500290564,-0.014130257954247508,0.03355187035964108,-0.00167394539768416,0.03710693172716319,-0.014950027727964922,0.0017092544181527595,0.014801752797514481,0.0527703620585731,-0.01996350087750458,0.03008577750619374,0.02079770916799269,-0.016718100308425,0.003431375604122877,0.021358612511083473,-0.0063632889767177405,0.023223577055614442,-0.014401803920375872,0.015142282271807948,-0.011036616179626436,0.02036288900499248,-0.016407598782599953,-0.017676689402286606,-0.010490691250629727,-0.02558894554641893,0.024757131182342074,0.018844169442567713,0.008546378522027194,0.10822856271243762,-0.06786296828556627,-0.09712741257631667,0.09229135550870718,0.08352462877004523,-0.04821136249490567,-0.07119972001543218,0.08346985641918116,0.06759041147292083,-0.026613825548186153,-0.08009405251687171,0.06511931235318089,0.042785379468080816,0.009234304999115732,-0.041342809254796685,0.054375147051523486,0.040760120511807,-0.04388112366786867,-0.029441393384232652,0.07404689721296019,0.00990454492815962,-0.0693917954205577,-0.001498768880890939,0.09239284552378668,0.022518997978338246,-0.04304098702456435,-0.025212667687410175,0.030171906248574385,-0.019939422154460668,-0.043860115416696974,-0.053728150230390896,0.060318213296039515,-0.03230310395650259,-0.012172330357831078,-0.014553122020323406,0.053189820961644284,-0.03308027859371365,-0.05206243926762745,0.011253704654343758,0.04158185267674704,-0.021196104489728286,-0.029462334628572652,0.008170267371560158,0.029295987280088392,-0.07550915868421135,-0.04869427101111206,-0.024738070794023344,-0.009938141377506777,0.053978792652569746,0.06786127985635136,-0.023098355315763656,-0.0037747189850240526,0.057342448493771805,0.003517650378714004,0.02583493487043308,0.008258986332117158,-0.01498292378787906,-0.008337272980497029,-0.018729057747108587,0.00011896067885398424,-0.008776169563768149,0.012154869713806466,0.05287162529410579,0.008182074355893208,0.05162695198552012,-0.09108511097011503,-0.03555131462892279,0.10529348482542826,0.025104896363875105,-0.08895371266565466,-0.05985375504436694,0.06418963153205072,0.028865360083709612,-0.05693234273366388,-0.05887983414239217,0.06871495338937969,0.0021351386885541442,-0.03565106399899857,-0.057643953200828,0.04233658677546142,0.053344012913003704,0.0002553928121112161,0.04775766645261033,0.05186262961021505,-0.033375352124467204,-0.08785036557477038,-0.04693011025512193,0.04840872109273791,-0.0030207686004109897,-0.016321425294136,0.0376615068315336,0.07725584993482379,-0.09039986628992115,-0.12684623764397362,-0.09644608843424389,0.03173211554107137],[-0.008034743621761237,0.0030629037416086465,-0.035718697257311714,-0.012558623359727813,0.02459081723613291,0.012346335231812437,-0.0005055706337027355,-0.03871175280427058,0.03727124821547135,0.02416263406441854,0.0382748422482606,-0.06590014005225706,0.02381387787806745,0.01142579548070471,-0.010774558279248211,-0.025992777808156228,-0.07546633353878215,-0.030785457972869693,0.043312841004309,0.06952861671656517,-0.035853147768920846,0.0017379821624915934,0.09399381145632073,0.07563508556155839,-0.08159541680378829,-0.04117618971046708,0.018636253282324485,0.046481570589120946,0.048954524011646475,0.012222839027420223,0.07779182151319794,0.06907801318873082,0.004004157597364489,-0.011221027484259058,-0.010576823692721391,0.002015887013797409,0.006549924448286282,0.003705923095739741,0.04451277375705226,0.016107444085073384,0.0022196926906767715,0.00937691504468732,-0.03993893415977815,0.02086552979931061,0.022102517885005078,0.03295617916286943,0.017401647438588404,-0.004740889246351495,0.12100468209170798,0.026616100666978237,-0.04732061329412257,-0.07851645773983779,0.03138917971221395,-0.05603833862551903,-0.04721393029118236,-0.05671731274752374,0.009612126162680066,-0.05916137157117156,0.004870584421520227,-0.03605857978072527,-0.10083572633158706,-0.09508047574999999,-0.09796801497837875,-0.02827842894729942,-0.097106910819084,-0.023964297010734537,-0.02336111187431903,-0.08161115356839915,0.007141247422250856,0.028737073661524185,-0.035922201397737365,-0.07081102335245668,0.02588195557201445,0.014392878395640981,0.04640954798762511,-0.09012000088488792,0.17890691215076152,0.10266576312281733,0.029454357319699493,-0.044077028108495314,-0.047302199408668665,0.01012869324057612,0.019781676335749898,-0.006197274506667862,0.027661797635333777,-0.0028028278763508087,-0.04877974626642624,0.00586193585644068,0.0074686409811589045,-0.013339678924610038,0.004769626296884649,-0.021598112072253105,0.03632867083863741,0.002400897212735756,0.009833088059852554,-0.023755405688053368,0.052797675071186205,0.05971570177742002,0.07957925194687639,0.13204186670814558,-0.0594531786900982,-0.06218045574202679,-0.02077232674631981,0.08283941546723575,0.056095789958458535,0.040021137070624546,0.04398353854258008,0.07311153352530352,-0.0408964455247213,0.02893298101294957,-0.004724975705744442,0.025661487741902765,-0.039683999058060755,0.07998721864181407,0.09947621611596057,0.21584105439950238,-0.01978283878890192,0.05463164008871233,0.09836862750623161,0.14700974200194822,-0.02784146982587667,0.020548031345504043,0.05852279015796892,0.16061358231067757,0.08325928938810782,0.08921044578059716,0.11269672140662129,0.0955836665593496,0.024895345448166427,0.005182415781612073,0.001639212396597568,-0.013120520318782537,0.000960600981956814,-0.005036933906781721,0.006985332228063736,-0.01383888457395923,-0.028597214745333447,0.0017827491450396115,0.01668516874410017,-0.0075134292924150725,-0.052176511358863045,0.004939709862275779,-0.036310275193824716,0.008406247806879607,0.0033169336088590203,0.020909476000815632,-0.012074399610494085,0.02263004352571443,-0.00670882179401815,-0.02221375195988123,0.009745280940860072,0.023914144979789855,0.01566769289937313,-0.02536996600937966,0.02197347094748435,0.0038870158792555804,-0.009233665775974216,-0.01912809001444021,0.004415556033821581,0.004314186633988367,-0.09812793694280442,0.10221723613429382,0.10150584485126739,0.15062601308215337,-0.09141816290633176,-0.012170201519392427,0.03185864165215169,0.12397649604796486,-0.013833731573002689,0.03635276227887841,0.07128110026865347,0.11442137579195302,0.007359882366524405,-0.019286805281705947,-0.03866365624053981,-0.002856683205619891,-0.0011064455950474264,-0.0062884152925639465,0.0762319143840637,-0.06223823519826544,0.05171848463609988,0.13475604367353866,0.1556310945592181,0.06263456234384124,-0.02938094165607384,0.019564618468396643,0.10532566602030066,0.05728848352055269,0.14808142140709896,0.08186722459029691,0.070378193285167,-0.022076233007083362,-0.0006105326282988731,0.015990831843463477,0.02959229828900226,0.006349219892117305,0.104145792909328,0.10786946421948021,0.09943530631210766,0.01726267936475748,-0.03872640745835146,0.03699634498538772,0.04039883662194899,0.010358442010329554,0.14475968856643226,0.1156775883221,0.06664218749846035,0.11460169953627009,-0.0436087461317046,-0.008869000457892953,0.09146540833611612,0.04201652405694098,-0.0033157214369155075,-0.012054299352524066,0.05240004036781999,0.03740542259579602,0.04014047369413562,0.04552154337304144,0.08161799339650466,-0.06721247436075416,0.062821682745469,0.046823527001846665,0.048026673651721384,0.024519868891707448,0.09217920683753411,0.134786804062211,0.1374130863945795,0.033165964802992394,0.021187126619377,0.06638690647111134,0.22009638208403431,0.06462010915951014,0.0001366356157124632,-0.003610437617671691,0.14902851293364772,0.040523947235756495,0.08834885876115439,0.06447420603728633,0.07166443580736359,0.0933580889589143,-0.06085891736925362,-0.013659286148005156,0.020910658720603655,0.0716249778744795,0.11224242582892398,0.2656982199623298,0.20113580857123503,0.18341140463155078,-0.011310555291515322,0.05882002915991259,0.027874275119757735,0.030054498485304625,0.17258395396406712,0.31397803940795693,0.30956827633267964,0.11529540184858254],[0.023518788253758707,0.018893562166737224,0.04235292385357826,0.013221955750211498,0.02347387412114865,0.031726544902053476,0.06858364369510805,0.022315525093883848,-0.005794358080477126,0.025807855091652267,-0.004360598604971644,0.02383514638832098,-0.038675253013912766,-0.006999386385966795,0.022037319764532926,0.014413355267177587,0.06007530158382944,-0.0026275552167742424,-0.04074379420879321,-0.034797980587574176,0.0837419002614055,0.06413391851214256,-0.0825451545250979,0.04037790788561182,0.16109296514383398,0.13638110720663874,-0.03359646897105129,0.01722152958749978,0.13100488746808678,0.018073221063508244,-0.021467349887667454,0.053952222169361505,0.02004065819280471,-0.014432804710699274,0.00029961253722213965,0.009442119118852406,0.024439315378116794,0.000560416889300138,0.008143970447669445,0.02457483161169848,0.023435922754524153,0.02066379999302247,0.013544536294673894,-0.014947180451564844,0.014158660168474944,0.028415808141186626,0.03844137279390049,0.019258132201636968,-0.10063259877463289,-0.02426218946832312,0.08292974495944226,0.012779954983518893,-0.09232660429059458,-0.06722294524990853,0.00019721848296472505,0.0133835868006564,-0.06821366342159783,0.03923232423136647,0.05049423524709768,-0.003430689224329245,0.018640040753868204,0.06308270550273036,0.011841301797493457,0.04539218107098687,0.10722962756190973,0.035726406686980294,0.01722098057233705,0.02619201245956743,0.13543961585348666,0.036889765004068514,0.06860358145089057,0.09322646772417292,0.06830733145692497,0.004397172625879112,0.006611632523816518,0.037593311001943755,0.01815087042504919,-0.03307272710999916,0.021371852763869215,0.051634806757458365,0.022013997146573462,-0.0013123012082782556,-0.02035305811584527,-0.004580545733518831,-0.01545380189197375,-0.0085498121583956,0.020878706631760186,0.018654688311156947,-0.020778410282796665,0.0033970089838552273,-0.018894354426869535,-0.004879588844765131,-0.0015322997829052298,0.016032123106003042,0.0188492220046037,0.00042848740655195754,0.03797035816629783,0.010993345153524571,-0.07625839991414043,-0.06595592889841997,0.03290330765178753,0.03072916467243339,0.0033265894926116876,0.05947214955297077,0.1245243364765908,0.1266247555996629,0.03828913442062475,0.03474083620357042,0.08046170506694704,0.031568709830320354,0.04118286547306767,0.011331798161817687,0.07300241403640223,-0.031042058521641543,-0.10850519242451091,-0.0015795589929950657,0.1205112460215066,0.016012917063538325,-0.02744661771704599,0.015463415667447482,0.156689233839879,0.07348769284032167,0.03459105497842491,0.06107768225252017,0.11570570613789821,0.1213875717605913,-0.01215856943717926,0.04776766287065641,-0.022559244895846656,-0.010929078196856776,0.012537215540507818,0.010194587709685362,-0.02208868716561945,0.009221457482737663,-0.012939359853449416,-0.012546955226476851,0.025426014540450924,-0.01978582451564408,0.004974944043122508,-0.009796892233481604,0.04097671072839098,0.013352998626055922,0.019932768006958715,0.013421827197304448,0.0016202165863290197,-0.019860410783439877,0.01088112454730724,0.017923925223294647,0.018332786415703597,0.003153814662451303,0.01174250874861842,0.01606667684391141,-0.017871719351220568,-0.020952959671909903,0.00894994994546054,-0.005924443198793724,-0.01630787930699936,-0.004982150137995221,0.0024248664180009346,0.017662687473175738,0.11211993686062244,-0.07574236373154627,-0.08566716225271294,0.09841903724964396,0.13591933098630815,-0.03135352506594512,-0.03244770551280106,0.0004452979804204672,0.11213037585294723,0.03553629543585225,-0.060826911744601427,0.020212675146113603,0.1354015902549998,0.017186225889372114,-0.01629667567210964,0.01243956773404519,0.03989388203290934,-0.0206002801000749,0.011871381641074418,0.043705419014057785,0.028176093244049637,-0.05023242427323213,-0.06412217667386984,0.029932566294308217,0.13665997104941885,-0.018525653673399034,0.018650334040302686,0.11409973438908674,0.13574253633438088,0.01607914673746102,-0.027131637873821484,0.03234938691409773,-0.010084597252930939,-0.03478937030686418,0.05335139193065252,0.0480414540956061,0.04955589047851818,0.00314974184736528,0.024845323646811145,0.060421542323231804,0.010659223248891748,-0.0331634192870316,-0.03558701128206871,0.028068369480886535,-0.039912687924171596,-0.0403254877238268,0.018816750944690697,0.023694443394844354,0.11959946851963098,0.06869766096215789,-0.00858333190399574,-0.007450025190679056,0.1116146746515137,0.11094170429121081,0.10445691668318866,0.0344030347338452,0.13931919516604543,0.0980366173296319,0.05893889513524311,-0.004888857282869942,0.0038952758576957106,0.036716470786122,0.09160825826833159,0.04633901002821866,-0.020761697682333023,-0.08879759937095096,0.03318820174403163,0.07946866764960082,0.08537954086200997,-0.033720129324285655,-0.05557295605952878,0.04886549591902302,0.12520276046781872,-0.02012660232498476,-0.007649778264547302,0.04249960418619753,0.11717911669041652,0.03768727843320455,0.07350503670850314,0.011525169417434948,0.044113116642559236,0.0036121244092669385,-0.008048929200537487,0.039816071578870564,-0.007082512745713439,0.01689985904237199,0.11398372549679169,0.033554216891334705,0.04530695760437315,0.006963557510579697,0.04039835365425772,0.05901824190535894,0.061078494997667786,-0.03869422748049855,0.018650621110611075,0.05277391405090081],[-0.11397733030731606,-0.016572026082446227,0.05170628844605494,0.03220330119571538,0.004734221256923708,0.03892976180089813,0.0972124183052009,-0.03395615411490226,0.031768504123907276,-0.040134091753719674,-0.053283233720209267,-0.08953929517102546,-0.01701187682687918,-0.02887235110569297,-0.194910221919784,-0.04472059111385976,-0.008309626140675777,-0.08685259076217319,-0.04132412663789536,0.06944092919369574,-0.055647997311919675,-0.08334867242094604,0.029806605598593487,0.25741926189090714,0.0024759055283010817,0.04626304825292415,0.12747496827706437,0.05616175890973591,0.08534368192837115,0.037590335558647624,0.08601611461673216,-0.181763848539593,-0.05842076749386497,-0.023881484622155405,0.0012791306693008839,-0.053655426317312134,0.05958124852127556,0.023362409983506194,0.061531649003528345,0.00825305399547251,0.030362635558238645,-0.008982494777369615,-0.003539608319762831,-0.02278350224253323,-0.05284858585684401,-0.0506381766463072,-0.11516033283201772,-0.04617717662067018,0.0978751028301329,-0.025502442047321577,-0.10345177342414083,-0.18498041508876867,0.062322584355989315,-0.09775313667249061,-0.33511405151190715,-0.1568870082028945,0.12464161810097303,0.016950190804782342,-0.06432491687868266,-0.045201342415186446,0.00614996640054295,0.03727292822038514,0.15909482579391454,0.09882241213480253,-0.11143513653296747,-0.16422052355390168,0.07759977042799203,-0.012216813557262207,-0.060645275002755045,0.03688980159684157,0.16399325333064643,0.08325811078554939,0.008944704891277244,-0.007460048438444963,-0.03201574622152511,-0.1594271441244404,0.058490868868207244,-0.02465307222652563,-0.2097738210189069,-0.3080274645229303,-0.09316999012579827,-0.033755123370206426,-0.011912519478127732,-0.023817028455590795,-0.021544790501592862,0.015095334011556508,0.03163432128948928,-0.013438523022765544,-0.012243266457443551,0.0262482447365796,-0.015305619804223309,-0.027845903490646345,-0.019708543793781227,-0.009719597493379237,-0.034825961118338994,-0.06460050566205619,0.06021580754078344,-0.016105419647672956,-0.07691252340464708,0.03952349901956711,-0.10340552267245481,-0.0786124217996781,0.0027301358960393532,0.1497040711461513,0.08561317199100643,0.08260465141234256,0.11612554640980019,0.24408826370224027,-0.006644147307261864,-0.07432544703117308,-0.13591315520931768,-0.18975067071905904,-0.04169287839614659,0.07371877341105791,-0.08703385895340848,0.08431012375151384,-0.06751999531672906,-0.02162467074799823,0.13864022491959624,0.10524710921372278,-0.07985181679283485,-0.01255869881263148,0.17245855221136303,0.06480260300396587,-0.03888780165876689,-0.022458613905643344,-0.047407212126272524,-0.012489017205246845,0.05019969832694087,-0.03098786558019467,-0.01483897467079347,-0.041283421146678836,0.00842383209144067,-0.0015044655743053944,-0.03595564406229687,-0.016643312347706763,0.005621405490221922,0.01871557540626126,-0.02231599787458487,0.009957975119254956,-0.05102275394310087,-0.009009811228949035,0.018710588105831042,0.011509001857858414,-0.0023550184552362918,-0.0003376643173396588,0.029218601097480004,-0.010279588622506709,0.024169242137577387,-0.014155389523666836,-0.0014064282071333022,-0.0084175098920241,0.0001173628771265894,-0.014917317578072528,0.02160272540066586,0.011254501955647348,-0.019634515329806375,-0.015401947962102997,0.012927364257521268,0.009940851959122384,-0.019481201228721864,0.13376458663003873,-0.05707172367123445,0.10947500708578439,-0.08452648593547772,-0.002743581610690073,0.053058219922973084,-0.10199948794774535,-0.16451140784553153,-0.04071349415202883,0.15527587249495026,-0.09901163771538309,-0.12929951335045045,-0.1623204772384801,-0.0949266400680151,0.03145028212585238,0.04598773134895745,-0.1610634359781818,0.056372574385975885,-0.041283426529437145,0.029733955938446466,-0.06300006231767945,-0.06506203632419788,-0.148318019780275,-0.12936931465559195,-0.05785428433908648,-0.09992165315568627,0.0528297866103835,0.08734200977130326,0.019293217305187352,0.18619100705988753,-0.04302712745452063,-0.03675539968695611,-0.004425453451056296,0.07934594430752206,0.040614051329554784,0.06508055640220278,0.020153458921167332,0.01238861566810418,0.04410055446299027,-0.07236310919919228,0.0018072425260096015,-0.11077260859446686,-0.13700344443633794,-0.05226326472630735,0.0005134762923261207,-0.004622870122828136,-0.03401478473157474,-0.20229732491488314,-0.14095891658871676,0.1950430954362565,0.03957896104257269,-0.002787285777260581,0.12869749344153353,0.20769899452548035,0.18117419497714105,0.09851702517426354,-0.08325443896629793,-0.010098496624034324,-0.15612218782783047,-0.007053431218297723,-0.22630515691358802,-0.44150582815046613,-0.29102331322903224,0.05358153705348319,0.004300698753945807,0.039348417419257584,-0.03377122030845838,0.11099852035518322,0.07482463608106543,0.09496128676559158,-0.119447786052143,0.028209859351190327,-0.0390015395528127,0.0768927457709159,-0.17393200403495757,-0.12201020564971399,-0.07105067947133362,-0.0679370012264878,0.014669707860706023,-0.12537777531804747,-0.17240420421036795,-0.07140216879447642,0.0749834666464679,-0.006617693679192011,0.17683824290936911,0.24275708378485872,0.1966931478197215,-0.03388130619737837,-0.029511655082704133,0.08117615231184065,-0.04154454722651323,-0.012767543827552241,-0.06057690978512199,-0.10582322657065471,-0.05119318692068595],[-0.14377922613632552,0.002291444755769708,0.011689603611346225,0.019611843198115472,0.04451537699782653,0.04515382906734163,0.03683283468416079,-0.04742972417736517,0.07898545019648556,-0.03443812239413994,-0.09065941901843044,-0.14021297678744205,0.003632200432044477,-0.0386853051659542,-0.23777212099077696,-0.11046290134779793,-0.07528707262411123,-0.0845563868954867,-0.023910202496808017,0.1276030945510791,-0.07024868920344832,-0.06194033899778878,0.08952498884620744,0.3950562706693201,-0.06171389580496057,0.0453980543491784,0.16491358163157155,0.10427414664639803,0.10216463437678074,0.09236461618000505,0.14808716151642506,-0.07905244873522614,-0.048711517051099246,-0.06454790030389826,0.01132646968163009,-0.027541741604987183,0.06402610127878565,0.039128968887730584,0.12938583719140415,0.02852640047833334,-0.011757268398491597,0.0064531853914900775,-0.018378017741901734,-0.025614195986949483,-0.028881982607239894,-0.02767939699200833,-0.11751460486626218,-0.03129366976951642,0.14573959482313043,-0.056016139888626096,-0.1930807571751556,-0.2763017763774916,0.1010735565635485,-0.16694223187404442,-0.4634921483961656,-0.24161197310237295,0.11748276531171095,-0.07085238719041877,-0.09408407783427007,-0.08432698496295798,-0.15799727511373998,-0.07180949848443495,-0.027662030935090485,0.05058123081080809,-0.14525821410924813,-0.2415472407271969,0.02217322410933954,-0.08650873964209688,-0.051383233537348603,0.032032005220115525,0.07103461806286081,0.014528283475259227,0.0438548420406974,-0.017912376961019008,-0.0016746686663895146,-0.2629862176068152,0.19218352936318722,0.044155112324231124,-0.23846113357857707,-0.38284598590664976,-0.13066490618474105,0.007562939069661434,0.0005979086201595552,-0.019898628157676655,-0.0072282625604233154,-0.0011117552516039715,-0.009705651050596046,0.005886680522300419,0.002190331952223263,0.03274888346783132,-0.008170210603528126,-0.04498898201528797,0.05175080052511821,0.016563719081823806,-0.04817569084257592,-0.09781489086756721,0.12629514689986795,0.01728698385343767,0.029733711284137782,0.16648278303287428,-0.15910886810555297,-0.1984090988182728,-0.06858548579198336,0.1822958436218592,0.15219777582128208,0.15232277016018989,0.17297902761544953,0.3245869934108291,-0.0402969276260501,-0.0650049812646444,-0.1420852933837626,-0.16302708383948628,-0.08015824652937516,0.13992213716183258,-0.019669627425186374,0.21842483972246904,-0.08298981281852778,0.06241332431498134,0.2575535948882956,0.23146699182299216,-0.11571913762759745,0.032766899069339085,0.22753113361741326,0.18210489010862319,0.012644080967704741,0.1084058053518622,0.12685159910841098,0.06874391307362387,0.042333956413884835,0.002234666792130354,-0.016435674043783294,-0.07197335871715178,0.038618798974713445,0.038026487040916185,-0.08770886475105201,-0.025017545142519883,-0.030941858649603048,0.011401277325252635,0.01740768801634498,-0.006377988157004103,-0.11438876650994513,0.0028750797846844116,0.02100567563475308,-0.03972357342246168,-0.001277225265810108,-0.00757688854355365,-0.014938501860869126,0.0008032946730963886,-0.01919621196575463,0.008448105068884685,0.0202876617763454,0.0054399689193815,-0.01940187963470912,-0.02338355255548185,-0.0072526130437452945,0.0044763711354364666,0.0008252478682759463,0.012443447607994118,-0.0013933068916907269,-0.022527406835463896,-0.10948884634872096,0.19431028457228594,0.05065336427166524,0.13026708972319662,-0.14587047951040374,-0.05371650580775905,0.052830398310734494,-0.05683445153979936,-0.15498853613911076,-0.004847028838470427,0.31148490372753035,-0.040242518608216614,-0.06723555462428149,-0.18675605792847408,-0.136863436161728,-0.03152811776336102,-0.0011152817740713763,-0.21149311407684068,0.07331940470658752,-0.10905067463600948,0.11115375923065203,0.03823572901199476,0.06274893566250644,-0.17431259934213741,-0.1755510383024295,-0.03819306413931875,-0.06966248494936839,0.05496564661550039,0.21887266740454356,0.020100598955497997,0.25589053847336046,-0.06887812766839833,-0.003190032090008449,0.013419522982739357,0.08282704000302685,-0.01017479708834393,0.20747926907300557,0.08320977816919724,0.07867456343702238,0.022172311049757008,-0.08550624406867316,0.040688975172326385,-0.09511520442259076,-0.13956388231142824,0.1085407340525466,